tree
version=v4
num_class=3
num_tree_per_iteration=3
label_index=0
max_feature_idx=57
objective=multiclass num_class:3
feature_names=instrument pre_asia_high pre_asia_low pre_asia_range pre_london_high pre_london_low pre_london_range pre_ny_high pre_ny_low pre_ny_range asia_high asia_low asia_range london_high london_low london_range ny_high ny_low ny_range atr_14 rsi_14 asia_type_code london_type_code pre_ny_type_code orb_time orb_size session_context day_of_week day_of_month month quarter day_of_week_sin day_of_week_cos orb_hour orb_size_pct_atr asia_range_pct_atr london_range_pct_atr ny_range_pct_atr asia_to_london_gap london_to_ny_gap london_asia_range_ratio ny_london_range_ratio session_ASIA session_LONDON session_NY asia_type_code_A0_NORMAL asia_type_code_A2_EXPANDED london_type_code_L1_SWEEP_HIGH london_type_code_L2_SWEEP_LOW london_type_code_L3_EXPANSION london_type_code_L4_CONSOLIDATION pre_ny_type_code_N0_NORMAL pre_ny_type_code_N1_SWEEP_HIGH pre_ny_type_code_N2_SWEEP_LOW pre_ny_type_code_N3_CONSOLIDATION pre_ny_type_code_N4_EXPANSION prev_day_avg_r avg_r_last_3d
feature_infos=none [0:3043] [0:3039.3000000000002] [0:36] [2005.5999999999999:3049.6999999999998] [2002.0999999999999:3043] [1.5:29.200000000000273] [2006:3047.5] [2001.3:3033.6999999999998] [2.5:48.099999999999909] [2006.2:3052.4000000000001] [2001.0999999999999:3034.9000000000001] [3.3000000000001819:63.400000000000091] [2006.3:3048.9000000000001] [1998.4000000000001:3031.4000000000001] [4.2999999999999545:72.200000000000273] [2005:3042.1999999999998] [1996.7:3035.1999999999998] [2.9000000000000909:49.600000000000364] [0:25.820000000000029] [6.9444444444444429:93.529411764704093] [0:2] [0:4] [0:5] [0:5] [0.1999999999998181:27.699999999999818] [0:2] [0:4] [1:31] [1:12] [1:4] [-0.43388373911755801:0.97492791218182362] [-0.90096886790241903:1] [0.5:23] [0:1.7320607988688548] [0:4.015553199010256] [0:4.0448179271708629] [0:4.0848389630793491] [0:6.0999999999999091] [0:17.599999999999909] [0.31614349775784611:4.1911764705884034] [0.24565756823821455:4.592592592592549] [0:1] [0:1] [0:1] [0:1] [0:1] [0:1] [0:1] [0:1] [0:1] [0:1] [0:1] [0:1] [0:1] [0:1] [-1:1] [-1:0.77777777777777779]
tree_sizes=3281 3287 352 3387 3349 360 3373 3371 359 3380 3360 361 3349 3376 361 3176 3382 362 3375 3365 361 3076 3365 361 3043 3371 362 3266 3380 361 3174 3380 226 2338 2124 226 2652 3240 226 3396 2560 226 3385 3016 226 3399 3376 362 3361 3357 362 3395 3387 362 3375 3378 362 3378 3338 360 3401 3373 226 3378 3366 226 3344 3379 226 3363 3386 226 3351 3377 226 3393 3402 362 3375 3398 361 3407 3390 362 3418 2666 362 3357 3191 361 3353 3401 362 3374 2972 362 3308 3067 357 3390 2558 362 3365 2664 362 3291 2978 363 3374 2988 363 2757 2997 363 3279 2891 363 3401 2241 362 2531 2663 365 2237 3262 364 2511 2660 364 1833 2445 362 2934 3398 364 3411 3401 364 3412 3407 364 3398 3382 366 3385 3405 364 3378 3353 366 3010 3388 362 3403 3430 362 3360 3404 363 3301 3394 362 3380 2845 360 3168 2363 362 3230 2370 363 2239 2477 362 2258 2472 362 3194 2256 362 3288 2859 361 3424 3405 469 3402 3362 469 3422 3407 468 3406 3299 362 2782 2468 364 2581 3393 362 3401 3260 364 2467 2485 364 2229 3290 363 3409 3413 363 2571 3418 363 3389 3382 364 2579 2684 364 2351 2775 364 3305 3417 364 3431 3204 363 3401 3215 366 3405 3307 366 3393 3417 365 3364 3395 469 3413 3397 466 3354 3401 470 3368 3412 469 3389 3393 470 3416 3422 363 3427 3411 362 3395 3417 363 3428 3398 362 3358 3439 360 2797 2559 363 3391 2112 363 3412 2578 362 2471 1938 363 3426 2118 363 3420 3380 470 3419 3411 469 2948 3415 470 3395 3374 471 3088 3424 471 2761 2772 473 2788 2788 365 2364 2049 468 2787 3186 471 2257 2370 471 2638 2055 365 2242 2048 365 1830 2375 367 1957 3379 366 2262 2481 365 3447 3341 366 3438 3403 367 3428 3383 366 3421 3374 363 3421 3346 365 2576 3370 469 2814 3382 468 2283 3433 469 2287 2661 471 3431 3427 471 3430 3405 363 3421 3405 363 3439 3429 361 3421 3388 362 3427 3424 363 3424 3402 366 3398 3375 366 3380 3388 366 3404 3411 367 3400 3388 366 2592 3425 471 2685 3440 363 2786 3386 364 2653 2069 362 2368 3378 364 2393 2691 364 2372 2911 364 2399 2906 362 1953 2915 363 2257 2045 363 3382 3421 364 3408 3422 362 3401 3298 363 3395 3295 364 3405 3306 362 2588 2572 361 3132 2483 360 2594 3018 363 2591 2580 362 2568 3016 362 2156 2484 363 1945 2683 363 3407 3419 364 2174 2380 363 2270 2600 362 2838 2997 362 3099 3013 362 3096 3115 363 2463 2911 362 2783 3118 362 3402 3446 468 3061 3402 467 3130 3434 469 3091 3421 470 2787 3421 470 3401 3378 367 3417 3398 366 3445 3403 367 3433 3441 365 3223 3380 367 1725 1731 469 2042 1935 472 1628 3303 364 2926 3430 363 1626 1854 363 3412 3430 364 3423 3443 364 3422 3340 363 3422 3422 364 3430 3456 363 2883 2655 364 2867 2657 363 3176 2554 364 2835 2961 363 2850 2456 363 3175 1842 363 2081 2589 361 2087 3216 363 2068 1851 363 2074 1748 363 3398 2900 472 3419 2903 472 3436 3400 468 3404 3419 469 3439 3404 472 3405 3408 227 2798 3436 227 3429 3439 227 3436 3385 227 2673 3368 227 3416 2786 365 3408 2939 365 3400 2144 355 3119 2687 351 3389 2710 366 3414 3404 365 3460 3415 366 3440 3422 366 3466 3438 366 3426 3444 363 3396 3402 227 3456 3383 227 3362 3422 227 3412 3417 227 3404 3412 227 3441 3410 227 3410 3416 227 3379 3403 227 3412 3423 227 3418 3442 227 3431 3389 470 3414 3430 466 3362 3451 468 3403 3424 469 3380 3378 468 3000 2595 470 1924 2593 470 2853 2585 470 2681 3390 471 2818 2692 471 3457 2779 227 3366 3413 227 3356 2754 227 3243 2162 227 3456 2153 227 3416 2977 467 3387 3416 471 3385 3418 364 3415 3382 470 3452 3421 469 3381 2875 465 3437 3409 468 3434 3383 469 3404 3364 470 3442 3394 364 3460 3428 470 3372 3452 363 3394 2787 469 3408 3275 471 3419 3044 470 3436 3398 469 3424 3431 470 3474 3410 469 3445 3328 471 3459 3393 471 3417 3430 364 3447 3434 471 3442 3409 363 3410 3435 471 3400 3415 472 3407 3368 468 3399 3419 467 3396 3421 468 3398 3364 469 3416 3386 471 3429 3462 471 3434 3380 472 3442 3464 471 3423 3235 472 3438 3222 365 3439 3420 227 3384 3429 227 3418 3380 227 3423 3423 227 3420 3413 227 3429 3431 470 3439 3431 471 3446 3458 471 3448 3435 467 3447 3472 470 3446 3454 473 3403 3454 472 3443 3424 472 3427 3368 365 3409 3396 471 3404 3380 470 3377 3378 470 3405 3378 473 3358 3376 470 3385 3432 473 3411 3396 471 3098 3455 471 2685 3224 366 3122 3385 471 2773 2880 471 3383 3385 364 3328 3389 475 3375 3355 366 3100 3358 365 3198 3422 472 3400 3411 474 3422 3408 475 3410 3439 471 3427 3489 474 3437 3412 474 2222 2213 367 2209 2240 368 2025 2234 366 2254 2286 368 2050 3451 473 3415 3436 474 3417 3410 475 3434 3392 472 3421 3416 473 3423 3396 476 3396 3428 367 3430 2119 368 3416 3460 473 3417 3411 367 3417 2124 475 3435 3455 475 3450 3406 475 3471 3436 477 3353 3433 477 3411 3443 477 3450 3414 475 3001 3270 476 3396 3430 475 3367 3442 476 2414 3433 475 3320 3369 452 3422 3257 449 3413 2688 453 2903 3409 369 2962 2991 453 3235 3426 476

Tree=0
num_leaves=31
num_cat=0
split_feature=25 41 34 25 41 34 9 31 15 36 18 37 34 34 9 41 57 34 15 24 34 18 34 28 34 1 37 1 9 36
split_gain=297.04 4.77781 6.89404 10.2979 4.65016 4.15707 3.52486 3.33046 4.94929 3.82355 3.32699 3.0921 3.48258 2.94374 2.91944 3.57746 2.21972 2.40471 4.93746 2.12799 2.05296 2.02803 2.07741 2.07224 2.00786 1.92379 1.8332 1.82924 1.80018 1.78362
threshold=19.449999999999822 0.73667397431885295 0.11986644635790279 5.6499999999998645 1.1816462702170816 0.32690633371855243 11.750000000000229 -1.0000000180025095e-35 25.899999999999867 0.70367573358999957 10.699999999999934 1.1942102590147361 0.061506935687254273 0.3651659952074004 14.650000000000093 2.029166666666693 0.13392857142857145 0.13384393217949406 18.35000000000014 3.5000000000000004 0.16412870762711268 5.8500000000000236 0.10010438413362333 22.500000000000004 0.0681218245844111 2494.9000000000005 0.72906152175301442 2340.7500000000005 13.450000000000047 0.74387850821063572
decision_type=2 2 2 2 2 2 2 2 2 2 2 2 2 2 2 2 2 2 2 2 2 2 2 2 2 2 2 2 2 2
left_child=1 2 6 16 11 10 21 24 9 -9 -6 12 -3 -5 15 -12 17 18 -4 27 -16 23 -23 -1 -8 -15 28 -13 -14 -28
right_child=-2 4 3 13 5 -7 7 8 -10 -11 14 19 26 25 20 -17 -18 -19 -20 -21 -22 22 -24 -25 -26 -27 29 -29 -30 -31
leaf_value=-1.0962259458064418 -1.1284908556952957 -1.1007760917211302 -1.1196320518697964 -1.1266616721155478 -1.0611038614487336 -1.1047686980732483 -1.0524705585226894 -1.1138913789712976 -1.1208809590416682 -1.0788482619695088 -1.0941532467124848 -1.0774033862971826 -1.0828957966466111 -1.0789530220515633 -1.0702906332487738 -1.0712605508234037 -1.0603434831245317 -1.0709232457045494 -1.0605656296324228 -1.1194138479936617 -1.0860693758123423 -1.0964244906803344 -1.1222154092539716 -1.0605656296324228 -1.0834513556736209 -1.1112916904667987 -1.0570757057557625 -1.1042590488419946 -1.097992673610769 -1.0832209831646271
leaf_weight=4.704962462186816 209.44504801928997 16.18791164457798 2.7342046350240699 2.9759036004543287 8.5442116856574994 5.8623240739107123 5.0093941390514356 2.9503369927406338 3.1920359581708899 27.261795103549957 24.173209384083748 3.3186851888895017 12.664693593978884 4.2087812274694443 24.247541591525078 8.3792125433683378 19.275313556194305 51.826551675796509 2.186890184879303 4.7816622853279105 12.245212182402609 8.9648769050836545 3.87878294289112 2.186890184879303 3.7765165120363235 2.492505669593811 2.6191549003124228 6.5362877547740936 17.052441075444221 38.896960124373436
leaf_count=21 3 72 12 13 39 26 23 13 14 123 108 15 57 19 110 38 88 235 10 21 55 40 17 10 17 11 12 29 76 175
internal_value=-1.1005 -1.08291 -1.07884 -1.07329 -1.08617 -1.08089 -1.08659 -1.0817 -1.08623 -1.08241 -1.07904 -1.09053 -1.08838 -1.10213 -1.08135 -1.0881 -1.06958 -1.07284 -1.09375 -1.10313 -1.07545 -1.09723 -1.1041 -1.0841 -1.06513 -1.09143 -1.08553 -1.09539 -1.09143 -1.0814
internal_weight=542.58 333.135 147.626 85.7002 185.51 83.4517 61.9256 42.1901 33.4042 30.2121 77.5894 102.058 87.4212 9.67719 69.0452 32.5524 76.023 56.7476 4.92109 14.6366 36.4928 19.7355 12.8437 6.89185 8.78591 6.70129 71.2332 9.85497 29.7171 41.5161
internal_count=1502 1499 666 388 833 376 278 190 150 136 350 457 392 43 311 146 345 257 22 65 165 88 57 31 40 30 320 44 133 187
is_linear=0
shrinkage=1


Tree=1
num_leaves=31
num_cat=0
split_feature=25 41 34 25 40 15 27 15 57 34 57 40 12 36 25 57 37 36 34 15 27 35 25 24 34 25 28 20 19 40
split_gain=278.519 4.80886 6.94729 10.0497 4.76531 3.74038 3.44441 3.41583 2.80472 2.63929 2.5107 3.00925 2.9085 2.31899 3.78788 2.8113 2.28536 2.946 2.94719 2.35736 1.98459 1.91651 1.79879 1.60089 2.1271 1.5257 3.13589 2.00251 1.43969 0.974998
threshold=19.449999999999822 0.73667397431885295 0.11986644635790279 5.6499999999998645 1.4898482362592118 4.9999999999998872 3.5000000000000004 25.899999999999867 -0.15073529411764705 0.3651659952074004 0.13392857142857145 2.3017045454545393 14.399999999999865 0.81871138055860715 0.89999999999997737 -0.23611111111111108 0.70926067941703141 1.0740713044698607 0.051888221194296986 6.6999999999999327 1.0000000180025095e-35 0.73327321499915188 0.80000000000006832 1.5000000000000002 0.15962753574990912 1.199999999999932 8.5000000000000018 49.156369912056654 19.190000000000001 2.9601769911503504
decision_type=2 2 2 2 2 2 2 2 2 2 2 2 2 2 2 2 2 2 2 2 2 2 2 2 2 2 2 2 2 2
left_child=1 2 6 10 5 -3 7 13 -8 -5 11 12 -4 14 -1 -15 19 18 -18 -7 -11 -10 -19 -12 -25 -6 -27 -28 -21 -13
right_child=-2 4 3 9 25 16 8 -9 21 20 23 29 -14 15 -16 -17 17 22 -20 28 -22 -23 -24 24 -26 26 27 -29 -30 -31
leaf_value=-1.0983670957002944 -1.1284853012663711 -1.1062500571661142 -1.0839187868136098 -1.0415382275008009 -1.0518249783738296 -1.1007841091747337 -1.0672644368967887 -1.0472549071128816 -1.0928586258000117 -1.0985874835005591 -1.1203955874629863 -1.126692778518569 -1.0984521558561997 -1.1054314998392483 -1.0607826164623966 -1.0807693847111381 -1.0662808292178645 -1.0991266662066908 -1.0884739716830567 -1.0800275842718925 -1.0641765274685189 -1.1211624797221238 -1.0719161119056064 -1.1143591631256715 -1.0907971130946466 -1.0524461888329946 -1.0708603843712687 -1.0981112287229096 -1.0684154225849631 -1.0991266662066908
leaf_weight=3.3059021085500708 209.44504804909229 5.6961415112018576 21.565655425190926 2.9759037941694242 4.9977949708700207 3.0769864320754996 2.2508068531751624 3.1920361667871466 5.0860943049192411 2.6447216868400574 5.6450082957744625 3.0258532166481009 29.956468045711517 4.6026963442563966 10.834552824497221 29.182605475187305 5.8495411574840537 2.1996736377477673 83.565583005547523 24.070944562554359 4.0565656572580338 3.4709012657403946 20.612826600670815 6.1028396487236005 7.5274669229984283 4.7688792943954459 5.6078421771526319 4.6282629519701004 20.435044139623642 2.1996736377477646
leaf_count=15 3 26 97 13 22 14 10 14 23 12 26 14 136 21 48 131 26 10 377 108 18 16 92 28 34 21 25 21 91 10
internal_value=-1.10138 -1.08435 -1.08845 -1.09403 -1.0811 -1.08283 -1.08078 -1.07753 -1.0965 -1.0654 -1.09776 -1.09455 -1.09229 -1.07971 -1.0693 -1.08423 -1.08197 -1.08441 -1.08695 -1.07633 -1.07712 -1.10412 -1.07466 -1.10704 -1.10117 -1.06712 -1.07269 -1.08277 -1.07457 -1.11588
internal_weight=542.58 333.135 147.626 85.7002 185.51 165.507 61.9256 51.1178 10.8078 9.67719 76.023 56.7477 51.5221 47.9258 14.1405 33.7853 159.811 112.228 89.4151 47.583 6.70129 8.557 22.8125 19.2753 13.6303 20.0028 15.005 10.2361 44.506 5.22553
internal_count=1502 1499 666 388 833 744 278 229 49 43 345 257 233 215 63 152 718 505 403 213 30 39 102 88 62 89 67 46 199 24
is_linear=0
shrinkage=1


Tree=2
num_leaves=2
num_cat=0
split_feature=25
split_gain=1151.39
threshold=19.449999999999822
decision_type=2
left_child=-1
right_child=-2
leaf_value=-1.1285942878385868 -1.0388463923120694
leaf_weight=333.13526044785976 209.44504803419113
leaf_count=1499 3
internal_value=-1.09395
internal_weight=542.58
internal_count=1502
is_linear=0
shrinkage=1


Tree=3
num_leaves=31
num_cat=0
split_feature=25 41 34 25 40 9 40 27 36 41 34 20 23 34 37 24 37 40 57 12 32 24 35 28 2 25 28 20 9 36
split_gain=281.817 4.38217 6.2971 9.46892 4.78679 3.31879 3.71846 3.65968 3.65916 3.13939 4.01586 4.24544 3.64583 2.80567 2.13337 2.83417 2.52291 2.03076 2.51974 2.65602 2.02053 1.98833 1.88267 1.87046 1.81363 1.80817 3.22028 1.90714 1.75243 1.65345
threshold=19.449999999999822 0.73667397431885295 0.11986644635790279 5.6499999999998645 1.4898482362592118 11.750000000000229 2.3017045454545393 3.5000000000000004 0.70367573358999957 1.1873288392669619 0.40236738780277914 29.227227476355484 3.5000000000000004 0.3651659952074004 1.3238461704925322 3.5000000000000004 0.72906152175301442 2.3017045454545393 0.13392857142857145 14.399999999999865 1.0000000180025095e-35 1.5000000000000002 1.2551056908380345 19.500000000000004 2491.8500000000004 1.199999999999932 8.5000000000000018 49.156369912056654 8.2500000000000018 0.73884187242940869
decision_type=2 2 2 2 2 2 2 2 2 2 2 2 2 2 2 2 2 2 2 2 2 2 2 2 2 2 2 2 2 2
left_child=1 2 5 17 9 21 7 8 -7 14 11 -11 -13 -5 16 20 29 18 19 -4 -16 28 -18 -23 -15 -6 -27 -28 -1 -3
right_child=-2 4 3 13 25 6 -8 -9 -10 10 -12 12 -14 24 15 -17 22 -19 -20 -21 -22 23 -24 -25 -26 26 27 -29 -30 -31
leaf_value=-0.0024454306611380937 -0.029428881264475935 0.0085482148724760239 0.014113101181811834 -0.027618879124967785 -0.017279824648430524 -0.015036329523670908 -0.0028721187915556573 0.042367865757636826 0.019364438796626485 0.040059504219080611 -0.01528312007731389 0.014318740085566477 0.037372572921986362 0.018940048681906435 0.026229332217853767 -0.027849486249317337 0.021283954273486533 0.044430223868216684 0.036020334835297929 0.028333223836082284 -0.011078348198082816 -0.012767002305426304 0.0071946328051173368 0.012256685172552684 -0.012445533903811742 -0.016614158842521484 0.0005016366225277575 0.026872212455207014 0.027027067772538996 -0.0072362936112886347
leaf_weight=2.9325631260871914 206.17404417693615 33.129777207970619 21.788535758852959 2.9328265935182554 4.9861794263124493 2.9335815012455013 7.2399169802665702 5.7690825760364524 26.56951516866684 8.1848368197679502 2.9505988657474509 60.102650463581085 7.0822781771421424 4.2474253475666046 2.6594223380088797 2.9563129991292953 26.324497431516647 6.646624729037284 18.29850509762764 30.359010308980942 2.267181321978569 9.2809747755527479 13.941786035895346 3.5728783756494513 2.4795922935009003 4.7496720105409613 5.6236551702022535 4.6670300513505936 3.9838868081569672 6.9965073615312567
leaf_count=13 3 148 97 13 22 13 32 26 119 37 13 268 32 19 12 13 118 30 82 136 10 41 62 16 11 21 25 21 18 31
internal_value=-0.00182593 0.0151237 0.0189994 0.024258 0.0120039 0.0115997 0.0163194 0.0203405 0.0158033 0.013671 0.0180911 0.0194559 0.0168455 -0.00343522 0.00969933 -0.00488085 0.0111705 0.0277668 0.0260913 0.0224875 0.00858499 0.00126872 0.0165099 -0.00553886 0.00691899 -0.00171364 0.00332876 0.0128935 0.0142465 0.00571027
internal_weight=541.831 335.657 149.035 86.7525 186.622 62.2824 42.5121 35.2722 29.5031 166.596 78.3204 75.3698 67.1849 9.65984 88.2755 7.88292 80.3926 77.0927 70.4461 52.1475 4.9266 19.7703 40.2663 12.8539 6.72702 20.0265 15.0404 10.2907 6.91645 40.1263
internal_count=1502 1499 666 388 833 278 190 158 132 744 350 337 300 43 394 35 359 345 315 233 22 88 180 57 30 89 67 46 31 179
is_linear=0
shrinkage=0.03


Tree=4
num_leaves=31
num_cat=0
split_feature=25 34 25 37 3 37 15 34 26 27 9 36 6 25 25 19 27 19 34 34 25 3 23 19 57 40 27 9 40 15
split_gain=264.578 3.40617 3.53128 4.47186 3.66808 3.65093 3.92945 4.50884 2.9764 2.77667 5.61451 3.3268 2.68856 3.4455 4.82856 3.8753 2.64468 2.37554 2.31355 2.10041 2.12775 1.9979 2.89356 1.91982 1.6495 1.61142 1.46917 1.45775 1.40178 1.142
threshold=19.449999999999822 0.090041275110937832 5.6499999999998645 2.802841355989627 4.5499999999999554 0.49621646121121687 20.60000000000014 0.094882244364999771 1.0000000180025095e-35 2.5000000000000004 13.749999999999774 1.3881287726358096 5.0499999999999554 1.4500000000000457 1.1000000000002503 13.225000000000025 3.5000000000000004 20.162500000000083 0.10762968529223495 0.036214117248960731 1.8000000000000684 2.649999999999864 1.5000000000000002 13.085000000000004 -1.0000000180025095e-35 1.0106393758232757 3.5000000000000004 14.900000000000093 0.79292929292930248 14.750000000000002
decision_type=2 2 2 2 2 2 2 2 2 2 2 2 2 2 2 2 2 2 2 2 2 2 2 2 2 2 2 2 2 2
left_child=1 9 3 5 29 18 7 -7 -8 12 24 21 19 14 15 -14 -13 28 25 20 -1 -12 -23 -20 26 -3 -11 -16 -15 -4
right_child=-2 2 4 -5 -6 6 8 -9 -10 10 11 16 13 17 27 -17 -18 -19 23 -21 -22 22 -24 -25 -26 -27 -28 -29 -30 -31
leaf_value=0.002814067027218948 -0.02942338107301198 0.038813051250280131 0.01388589563221836 0.048267927049338993 0 -0.013105101997035285 0.013406501644892082 0.015210648887776674 -0.0044448160201160597 -0.0006714378751890678 -0.012096399136747999 0.042744950436135791 -0.0058313578571054557 0.032809243187988869 -0.019733519427743474 0.029489993298878522 0.0023132375939312381 0.046027487327922986 -0.01935859728538189 0.038707494735622509 0.036518315686182364 0.022005757491680419 -0.0090271385198663727 0.001744773380377104 0.035704300994835091 0.0040176686308654825 0.025883615999479439 0.0057943981499576453 0.0018083727719564182 0.038777960510696534
leaf_weight=4.2461757659912136 206.17465579509735 2.2851435244083396 2.6973182857036617 2.7775781601667395 4.0053075253963462 5.0609850138425818 14.079642370343207 141.91821207106113 20.239589869976044 2.8866285234689704 9.4114183336496406 2.9952262490987769 3.5304696708917644 2.509224057197569 4.38525666296482 10.912841424345968 3.088361844420433 5.2922085225582123 4.3447619974613181 13.927565455436705 2.9779080003499985 5.4159744977951032 5.0603281110525131 29.650979787111282 8.6444769054651243 2.9018749445676804 4.3007091730833054 3.3371066004037857 3.1143249273300171 9.4164000153541547
leaf_count=19 3 10 12 12 18 23 63 634 92 13 43 13 16 11 20 48 14 23 20 61 13 24 23 134 38 13 19 15 14 41
internal_value=-0.00268202 0.0137505 0.0117911 0.0107793 0.0254685 0.0102717 0.0120687 0.014207 0.00280929 0.0185857 0.0125657 0.00381366 0.023139 0.0174981 0.0104198 0.0206692 0.0230741 0.0313741 0.00187104 0.0316965 0.0174261 -0.00201392 0.00678878 -0.000913183 0.0266207 0.0203584 0.0149439 -0.00838544 0.0164966 0.03364
internal_weight=541.589 335.414 239.378 223.259 16.119 220.481 181.298 146.979 34.3192 96.0362 41.8031 25.9713 54.2331 33.0814 22.1657 14.4433 6.08359 10.9158 39.1828 21.1516 7.22408 19.8877 10.4763 33.9957 15.8318 5.18702 7.18734 7.72236 5.62355 12.1137
internal_count=1502 1499 1072 1001 71 989 812 657 155 427 187 117 240 147 99 64 27 48 177 93 32 90 47 154 70 23 32 35 25 53
is_linear=0
shrinkage=0.03


Tree=5
num_leaves=2
num_cat=0
split_feature=25
split_gain=1066.2
threshold=19.449999999999822
decision_type=2
left_child=-1
right_child=-2
leaf_value=-0.029543372069522671 0.056344319167053167
leaf_weight=328.03988519310951 215.40907593071461
leaf_count=1499 3
internal_value=0.00449887
internal_weight=543.449
internal_count=1502
is_linear=0
shrinkage=0.03


Tree=6
num_leaves=31
num_cat=0
split_feature=25 41 34 25 41 34 9 9 36 34 37 23 34 28 37 34 34 24 24 27 24 57 34 15 28 3 1 37 35 9
split_gain=267.5 4.08656 5.84987 8.7731 4.07366 3.75256 3.11005 3.01834 3.64104 2.96841 2.89843 3.40033 3.58361 2.896 2.82387 3.17939 2.72452 2.63042 2.00428 1.90296 1.89528 1.83849 2.22828 4.58519 1.79151 1.77806 1.69526 1.69347 1.6613 1.64566
threshold=19.449999999999822 0.73667397431885295 0.11986644635790279 5.6499999999998645 1.1816462702170816 0.32690633371855243 11.750000000000229 18.700000000000049 0.81871138055860715 0.061506935687254273 2.802841355989627 3.5000000000000004 0.29697254233377207 10.500000000000002 1.1942102590147361 0.061506935687254273 0.3651659952074004 2.5000000000000004 3.5000000000000004 2.5000000000000004 1.5000000000000002 0.13392857142857145 0.13384393217949406 18.35000000000014 18.500000000000004 3.7000000000000459 2340.7500000000005 0.60738634519705659 0.58758968920482024 8.2500000000000018
decision_type=2 2 2 2 2 2 2 2 2 2 2 2 2 2 2 2 2 2 2 2 2 2 2 2 2 2 2 2 2 2
left_child=1 2 6 21 14 10 20 8 9 -8 11 12 -6 -10 15 27 -5 -13 26 -9 29 22 23 -4 -22 -18 -16 -3 -24 -1
right_child=-2 4 3 16 5 -7 7 19 13 -11 -12 17 -14 -15 18 -17 25 -19 -20 -21 24 -23 28 -25 -26 -27 -28 -29 -30 -31
leaf_value=-0.0024007892068738071 -0.029000081895644004 0.0045833942693396254 -0.021236750424605811 -0.027345263682169236 0.015232055423189065 -0.0062126422676915529 0.023560142376751497 -0.014008367401847601 0.045262733016924545 -0.014626695886507045 -0.012569734858424888 0.018677254794926653 0.054100908978337671 0.019933154686339827 0.020068722587003759 0.012229348878674875 -0.0035196677196844012 0.051049639285988296 -0.020460452853967467 0.011037734702693765 -0.013493114359136948 0.03497452021301066 0.047800888717208945 0.035197317459399628 0.0098439838750269334 0.028289635851549672 -0.005669682988568547 -0.015500778970086357 0.02399372993421249 0.026075924027543287
leaf_weight=2.9301628768444088 202.77552628517151 10.55327193439007 2.7496957629919043 2.9035879075527173 64.103681594133377 5.8674913346767417 3.1370791196823147 3.8765266239643088 5.7868705689907101 4.0820930600166321 2.4856490343809119 5.002712205052374 2.1984852850437155 17.598231971263885 3.3661437183618528 72.055721193552017 4.5152463316917419 5.1221365034580231 4.7377315908670417 8.3466653227806074 8.5742025822401029 19.915860280394554 3.1165040135383597 2.2524385154247284 4.2671606987714759 2.2225644886493683 6.5377690643072128 5.673470973968505 49.967498913407326 4.0275973081588745
leaf_count=13 3 47 12 13 284 26 14 17 26 18 11 22 10 78 15 320 20 23 21 37 38 88 14 10 19 10 29 25 221 18
internal_value=-0.00176243 0.0145743 0.0183007 0.0233375 0.0115669 0.0164658 0.0111781 0.015721 0.0207572 0.00165262 0.0181958 0.0192507 0.0166456 0.026495 0.00749045 0.00952397 -0.00335409 0.0356869 -0.00454869 0.00280182 0.00117113 0.0266752 0.0237228 0.00377906 -0.00549028 0.00679463 0.00289157 -0.00230696 0.0255351 0.0137942
internal_weight=540.75 337.974 150.27 87.6434 187.704 84.7802 62.6266 42.8275 30.6043 7.21917 78.9127 76.427 66.3022 23.3851 102.924 88.2825 9.6414 10.1248 14.6416 12.2232 19.7991 78.002 58.0861 5.00213 12.8414 6.73781 9.90391 16.2267 53.084 6.95776
internal_count=1502 1499 666 388 833 376 278 190 136 32 350 339 294 104 457 392 43 45 65 54 88 345 257 22 57 30 44 72 235 31
is_linear=0
shrinkage=0.03


Tree=7
num_leaves=31
num_cat=0
split_feature=25 41 34 25 40 15 27 15 57 40 57 12 34 9 41 18 12 25 56 3 35 25 35 37 25 25 28 20 3 8
split_gain=251.471 4.18455 6.09682 8.70087 4.18479 3.39752 2.98598 3.00319 2.54467 2.33809 2.80383 2.6511 2.27092 2.20153 2.45242 2.04811 1.96346 2.34836 1.97507 1.82762 1.82597 1.7337 1.49093 1.46337 1.3603 1.28348 2.71219 1.80335 1.0372 0.947128
threshold=19.449999999999822 0.73667397431885295 0.11986644635790279 5.6499999999998645 1.4898482362592118 4.9999999999998872 3.5000000000000004 25.899999999999867 -0.15073529411764705 2.3017045454545393 0.13392857142857145 14.399999999999865 0.3651659952074004 14.249999999999888 0.50582722964239035 23.050000000000185 9.8500000000001382 2.7999999999998413 1.0000000180025095e-35 3.7000000000000459 0.73327321499915188 0.89999999999975 1.3920978900082075 0.47410238289638845 4.4500000000000464 1.199999999999932 8.5000000000000018 49.156369912056654 1.9500000000000457 2329.6500000000001
decision_type=2 2 2 2 2 2 2 2 2 2 2 2 2 2 2 2 2 2 2 2 2 2 2 2 2 2 2 2 2 2
left_child=1 2 6 9 5 -3 7 13 -8 10 11 -4 -5 21 -15 16 17 -7 -18 28 -10 -1 24 -12 -17 -6 -27 -28 -14 -11
right_child=-2 4 3 12 25 15 8 -9 20 29 23 -13 19 14 -16 22 18 -19 -20 -21 -22 -23 -24 -25 -26 26 27 -29 -30 -31
leaf_value=0.0089461628159583483 -0.028994561634116803 -0.0076633199665292273 0.013856694613537572 0.052081039737102028 0.043056448565343609 0.00486790623636724 0.029416170444280965 0.047454720509856503 0.0055001263916458314 -0.0036992624884024882 -0.023427484849599445 2.9487848677609252e-05 0.01291599911721426 -0.0051404712004031999 0.017173610609523493 0.0048835131062509099 0.022172543667475671 0.026535627117685562 0.014091676811935497 -0.0014448535371491317 -0.022182331863948506 0.026688306875778681 0.022039728802047374 -0.00280185128643636 -0.019798197104097977 0.042575658163392149 0.025829168886572593 0.00012525901672883841 0.044452967595427932 -0.027847502454881337
leaf_weight=7.2099168449640301 202.77673432230949 5.6982779949903479 21.806056171655655 3.1053905040025693 5.1737462580204037 23.27338628470898 2.2998290508985511 3.3060581088066092 5.1050579100847226 3.2778992950916281 4.0873649269342449 30.020682036876678 2.2677902430295944 6.6670929491519955 11.998002260923384 9.8386416137218458 60.894153729081154 5.6860264092683783 56.714215695858002 2.2337263971567154 3.434452548623085 22.889240220189095 3.421703726053237 13.801883786916731 2.4186905920505515 4.9314710497856131 5.73140040040016 4.6572667211294174 2.3540746420621872 3.2031097561120987
leaf_count=32 3 26 97 13 22 104 10 14 23 15 19 136 10 30 53 44 268 25 251 10 16 100 15 63 11 21 25 21 10 15
internal_value=-0.00259284 0.0132645 0.00944923 0.00420999 0.0162602 0.0146459 0.0165589 0.0195428 0.00190321 0.000706505 0.00235452 0.00592053 0.0304385 0.0174958 0.00905833 0.0154521 0.0165634 0.00930216 0.0183165 0.0195959 -0.00541396 0.0225814 0.00483473 -0.00778523 0 0.0292079 0.0240876 0.0147031 0.0302155 -0.0163317
internal_weight=540.283 337.507 149.068 86.158 188.439 167.945 62.9096 52.0703 10.8393 76.197 69.716 51.8267 9.96098 48.7643 18.6651 162.247 146.568 28.9594 117.608 6.85559 8.53951 30.0992 15.679 17.8892 12.2573 20.4939 15.3201 10.3887 4.62186 6.48101
internal_count=1502 1499 666 388 833 744 278 229 49 345 315 233 43 215 83 718 648 129 519 30 39 132 70 82 55 89 67 46 20 30
is_linear=0
shrinkage=0.03


Tree=8
num_leaves=2
num_cat=0
split_feature=25
split_gain=990.744
threshold=19.449999999999822
decision_type=2
left_child=-1
right_child=-2
leaf_value=-0.02913275171285877 0.05334501088420264
leaf_weight=322.84885722398758 220.51536996662617
leaf_count=1499 3
internal_value=0.00433762
internal_weight=543.364
internal_count=1502
is_linear=0
shrinkage=0.03


Tree=9
num_leaves=31
num_cat=0
split_feature=25 41 34 25 40 15 34 6 34 1 19 35 57 34 37 35 42 36 40 57 12 1 25 28 20 35 15 37 24 34
split_gain=254.037 3.76354 5.36424 8.08762 4.2808 2.87331 2.59931 2.51442 3.72163 3.67498 4.11836 2.80766 2.59634 2.27695 2.44508 2.43974 2.2727 1.88414 1.7608 2.12669 2.37691 1.68332 1.66794 2.92823 1.7342 1.42492 2.28342 1.00276 0.995706 0.787318
threshold=19.449999999999822 0.73667397431885295 0.11986644635790279 5.6499999999998645 1.4898482362592118 4.9999999999998872 0.3651659952074004 3.6500000000000914 0.069728061255676946 2546.6000000000004 20.162500000000083 1.2361701207793307 0.11805555555555557 0.44673960147974945 0.70926067941703141 0.82657767149745764 1.0000000180025095e-35 0.73884187242940869 2.3017045454545393 0.13392857142857145 14.399999999999865 2494.9000000000005 1.199999999999932 8.5000000000000018 49.156369912056654 0.96713910507013934 18.650000000000095 0.47410238289638845 3.5000000000000004 0.18390895660775627
decision_type=2 2 2 2 2 2 2 2 2 2 2 2 2 2 2 2 2 2 2 2 2 2 2 2 2 2 2 2 2 2
left_child=1 2 7 18 5 -3 -5 12 25 10 -10 -11 16 14 17 -16 -1 -7 19 20 -4 -8 -6 -24 28 26 -9 -21 -25 -26
right_child=-2 4 3 6 22 13 21 8 9 11 -12 -13 -14 -15 15 -17 -18 -19 -20 27 -22 -23 23 24 29 -27 -28 -29 -30 -31
leaf_value=0.024309554775426116 -0.028591189709549023 0.033437286653708535 0.012852849314738452 -0.026939682169335281 -0.016850748189803696 0.0091181007958412181 0.018041363208193637 0.028337535771648631 0.006224311635464704 0.025058991464579017 -0.02837675981199932 -0.0078200042051996699 -0.02754059003074617 -0.01432339813471527 0.021699081611949771 0.01183452083230721 -0.0036552545922408884 -0.0074162814029890747 0.040879402025332537 0.047157629721973467 0.026183245844825433 -0.012181254131214913 -0.016175878052576802 0.011780999114832866 0.037156607112271249 0.036991820160257906 0.0029260535020298418 0.028311315262617841 -0.013071987593175242 0.0099361940999247635
leaf_weight=3.8057748526334745 199.26233911514282 5.9113628268241873 22.140189200639725 2.8578180968761426 4.9329001307487514 41.178530514240265 4.2942143529653549 8.11584021151066 11.556826397776605 11.053365513682364 4.0903961211442939 2.7450547069311133 2.5030185133218756 2.7345092594623557 33.981663808226585 77.786802649497986 7.4624411910772324 7.0202156752347937 6.8616318106651297 4.3327694982290295 31.058200880885124 2.4643154889345169 4.6984310150146475 3.14030474424362 2.4717420935630798 5.8870045542716971 5.69989389181137 14.497459217905996 2.5134904086589813 2.2848728597164154
leaf_count=17 3 26 97 13 22 182 19 36 51 49 18 12 11 12 150 343 33 31 30 19 136 11 21 14 11 26 25 63 11 10
internal_value=-0.00169657 0.0140566 0.0176187 0.0224129 0.0111738 0.0127333 -0.00325654 0.0108024 0.013973 0.00703622 -0.00275313 0.018293 -0.000316026 0.0119426 0.012419 0.0148772 0.00565656 0.00663736 0.02558 0.0240263 0.0207262 0.00656716 -0.00179541 0.00300124 0.0120133 0.0241006 0.0181656 0.0330325 0.000175625 0.0251726
internal_weight=539.343 340.081 151.426 88.5066 188.655 168.613 9.61635 62.9196 49.1484 29.4456 15.6472 13.7984 13.7712 162.702 159.967 111.768 11.2682 48.1987 78.8903 72.0286 53.1984 6.75853 20.0417 15.1088 10.4104 19.7027 13.8157 18.8302 5.6538 4.75661
internal_count=1502 1499 666 388 833 744 43 278 217 130 69 61 61 718 706 493 50 213 345 315 233 30 89 67 46 87 61 82 25 21
is_linear=0
shrinkage=0.03


Tree=10
num_leaves=31
num_cat=0
split_feature=25 41 25 25 15 35 1 41 36 25 15 41 28 28 28 19 41 25 28 57 41 9 1 36 27 40 25 9 25 19
split_gain=239.12 3.88535 3.90473 5.94512 3.5267 2.64473 2.53607 2.08052 2.42121 1.98924 2.54478 1.80645 3.11868 2.49892 2.13936 1.89374 3.6648 3.89751 3.55974 3.02149 1.90511 1.71019 1.62242 1.61538 1.61017 1.47615 1.42763 3.26662 2.04919 1.26329
threshold=19.449999999999822 0.66156293497713403 5.6499999999998645 2.6000000000000232 4.9999999999998872 0.58758968920482024 2688.3000000000006 0.61406619385342798 0.81871138055860715 4.0499999999999554 16.200000000000049 1.1816462702170816 6.5000000000000009 26.500000000000004 23.500000000000004 16.284999999999972 0.82028592442770087 2.9500000000000459 11.500000000000002 1.0000000180025095e-35 1.0514602465458887 15.649999999999865 2584.8000000000006 1.6755446300354471 2.5000000000000004 1.6451048951048433 2.899999999999864 18.85000000000014 3.549999999999955 22.414999999999988
decision_type=2 2 2 2 2 2 2 2 2 2 2 2 2 2 2 2 2 2 2 2 2 2 2 2 2 2 2 2 2 2
left_child=1 2 3 6 -3 -5 7 8 -1 10 -7 15 26 14 -14 16 19 -18 29 -6 -20 -15 -11 -4 -8 -9 27 -13 -28 -17
right_child=-2 4 23 5 11 9 24 25 -10 22 -12 12 13 21 -16 18 17 -19 20 -21 -22 -23 -24 -25 -26 -27 28 -29 -30 -31
leaf_value=0.029352868238257154 -0.028585627642896887 -0.0075670606600841302 0.040155666347070157 -0.02812763042218093 0.014374193059432206 -0.00878756000233657 0.0087490549288899711 -0.0040465020707916672 0.013067582459013238 -0.018351483288171842 0.011871999800364609 0.024203758863202401 0.0089930691534244791 0.027600731752640387 -0.0058857944104842635 0.040212315016293326 0.026011273520769519 0.0050988785743392682 0.019651706459172035 -0.0046429263414730559 -0.00089744695653971873 0 0.0060236813352745923 0.0083778903663264039 -0.015350373702132497 0.020815896517831053 0.053937884167007046 -0.0095244664854063823 0.015838246429457182 0.019617152525238282
leaf_weight=10.457920819520949 199.26420465111732 5.6873726099729529 4.76606860756874 3.2298070192337027 18.636594146490101 7.909548997879031 5.1617520302534086 8.696238771080969 48.551980435848236 7.5775207132101041 15.597247406840323 11.493615388870241 36.339132711291313 8.7282277345657331 11.092663794755934 11.455978021025659 31.368529215455055 11.354974851012228 35.342418879270554 12.182721585035322 4.2632977515459052 2.6832214295864096 3.3252022266387939 2.5141071528196335 4.55919249355793 2.7136728614568701 2.8167634755372992 3.1207032054662696 2.9827330410480499 4.8026159554719916
leaf_count=45 3 26 20 15 82 36 23 39 215 35 70 50 161 38 50 49 136 50 154 55 19 12 15 11 21 12 12 14 13 21
internal_value=-0.00250251 0.0128056 0.00853715 0.00717009 0.0152768 -0.00259538 0.0117915 0.0137783 0.0160492 -3.733e-05 0.00478563 0.0159172 0.0122011 0.00858722 0.00544524 0.0181588 0.0148316 0.0205482 0.022451 0.00676909 0.0173675 0.0212255 -0.0106575 0.0298504 -0.00228949 0.00173547 0.0223792 0.0167819 0.035452 0.0344692
internal_weight=538.676 339.412 125.06 117.78 214.352 37.6393 80.1408 70.4198 59.0099 34.4095 23.5068 208.664 79.2571 58.8432 47.4318 129.407 73.5428 42.7235 55.8643 30.8193 39.6057 11.4114 10.9027 7.28018 9.72094 11.4099 20.4138 14.6143 5.7995 16.2586
internal_count=1502 1499 557 526 942 171 355 311 260 156 106 916 350 261 211 566 323 186 243 137 173 50 50 31 44 51 89 64 25 70
is_linear=0
shrinkage=0.03


Tree=11
num_leaves=2
num_cat=0
split_feature=19
split_gain=897.722
threshold=24.177500000000023
decision_type=2
left_child=-1
right_child=-2
leaf_value=-0.028753820509491664 0.049391969109017608
leaf_weight=313.79760311543941 228.58598008751869
leaf_count=1481 21
internal_value=0.004178
internal_weight=542.384
internal_count=1502
is_linear=0
shrinkage=0.03


Tree=12
num_leaves=31
num_cat=0
split_feature=25 41 25 25 15 35 6 6 41 3 9 36 35 9 35 3 29 25 33 6 25 41 28 1 40 13 18 9 25 56
split_gain=241.629 3.49305 3.86523 5.00872 2.9318 2.12243 2.0597 3.62287 2.4994 3.49006 3.0903 2.08448 1.98654 1.92451 1.91998 1.90701 1.65727 2.80345 3.35004 1.63762 1.60597 2.31924 1.53233 1.32313 0.945553 1.06481 0.87157 0.790101 0.741631 0.629081
threshold=19.449999999999822 0.66156293497713403 5.6499999999998645 2.6000000000000232 4.9999999999998872 0.54325879033603364 4.3999999999998645 4.6499999999998645 1.1816462702170816 10.200000000000047 14.650000000000093 0.80367707955449419 0.58758968920482024 8.30000000000007 0.87828306445328563 5.0499999999999554 2.5000000000000004 1.6500000000000912 9.5000000000000018 3.6000000000001369 4.0499999999999554 0.41484588372999648 17.500000000000004 2584.8000000000006 1.5133467278989352 2045.1500000000003 5.2999999999999554 16.60000000000014 1.3000000000000684 -1.0000000180025095e-35
decision_type=2 2 2 2 2 2 2 2 2 2 2 2 2 2 2 2 2 2 2 2 2 2 2 2 2 2 2 2 2 2
left_child=1 2 3 5 29 26 16 11 9 -9 -10 -8 -5 22 -4 -15 24 18 -18 -19 21 -14 -7 -22 25 -6 -1 -16 -28 -3
right_child=-2 4 14 12 6 13 7 8 10 -11 -12 -13 20 15 27 -17 17 19 -20 -21 23 -23 -24 -25 -26 -27 28 -29 -30 -31
leaf_value=0.0098177555828014695 -0.028208484488148926 0.016353552614834461 -0.026553899881820761 0.050396492286827251 0.003040714053883696 -0.010358217232394697 0.0074751790822863923 0.0062350729112038575 0.0067800149529381902 0.031573091189145294 0.021217402048331009 0.039281288347522335 0.007602228370008339 0.020225134950733078 -0.004299783686160491 0.0054905993182877292 0.014070318490613812 -0.0042399976807524697 -0.018282955073869806 0.015525516612218728 0.041974214787815191 0.027462586988790685 0.015126412664028544 0.017251357068858827 0 0.02051438992255605 0.0028278901253997344 0.019238138758007464 -0.020050463043916857 0.040416773900112751
leaf_weight=4.7337614744901639 195.71625716984272 2.3251119554042816 2.2111147344112387 3.4330099523067465 5.0564474463462856 4.1008252054452878 2.9601437896490079 83.367151498794556 22.168471843004227 5.1897285878658286 37.028788775205612 6.7899397015571594 8.8429338932037371 53.557739332318306 2.4357646256685257 10.068241715431212 3.8298796117305782 5.2791112959384945 10.085622698068617 11.291424274444578 8.0442845970392209 15.673753619194029 4.1133317649364471 3.4781955778598777 4.5308813452720633 10.8854833394289 2.2516320645809174 2.2453723698854446 2.3143297284841537 3.6672291457653037
leaf_count=21 3 10 10 15 22 18 13 367 97 23 162 30 38 234 11 44 17 23 44 50 35 68 18 15 20 48 10 10 10 16
internal_value=-0.0016283 0.0135796 0.0175592 0.0188116 0.0111924 0.0144385 0.010565 0.0122758 0.0110595 0.00778774 0.015882 0.0301034 0.027666 0.0161841 -0.00388312 0.0179529 0.00520479 0.000657872 -0.00912765 0.00906092 0.0252843 0.020481 0.00207111 0.0349821 0.0117937 0.0152126 0.000606232 0.00652928 -0.0083066 0.031994
internal_weight=537.676 341.96 127.504 120.612 214.455 81.1399 208.463 157.504 147.754 88.5569 59.1973 9.75008 39.4722 71.8401 6.89225 63.626 50.9589 30.486 13.9155 16.5705 36.0392 24.5167 8.21416 11.5225 20.4728 15.9419 9.29972 4.68114 4.56596 5.99234
internal_count=1502 1499 557 526 942 355 916 692 649 390 259 43 171 314 31 278 224 134 61 73 156 106 36 50 90 70 41 21 20 26
is_linear=0
shrinkage=0.03


Tree=13
num_leaves=31
num_cat=0
split_feature=25 41 34 25 15 2 57 40 36 6 6 41 3 9 36 40 40 9 19 32 29 25 24 25 41 29 34 34 27 57
split_gain=227.712 3.60687 5.21408 6.13866 3.28891 2.79679 2.6861 2.61944 2.49703 1.89352 3.96419 2.52873 3.7228 3.17569 2.15028 1.80567 2.53481 2.55877 2.20393 1.55657 1.54409 2.53655 3.22466 1.6985 1.5061 1.54466 1.3192 5.29276 1.16536 1.03818
threshold=19.449999999999822 0.66156293497713403 0.11986644635790279 5.6499999999998645 4.9999999999998872 2685.3500000000004 0.13392857142857145 2.3017045454545393 1.1562146720256223 4.3999999999998645 4.6499999999998645 1.1816462702170816 10.200000000000047 14.650000000000093 0.80367707955449419 1.5233032646048374 1.1978645311978362 11.850000000000138 20.162500000000083 0.81174490092936691 2.5000000000000004 1.6500000000000912 1.5000000000000002 2.3999999999999777 0.57068001315850858 2.5000000000000004 0.15847337334450354 0.17949066060254959 2.5000000000000004 0.088888888888888892
decision_type=2 2 2 2 2 2 2 2 2 2 2 2 2 2 2 2 2 2 2 2 2 2 2 2 2 2 2 2 2 2
left_child=1 2 5 6 -3 15 7 8 -4 20 14 12 -12 -13 -11 16 18 -18 -1 -5 29 22 -22 -23 25 -17 -8 -28 -7 -6
right_child=-2 4 3 19 9 28 26 -9 -10 10 11 13 -14 -15 -16 24 17 -19 -20 -21 21 23 -24 -25 -26 -27 27 -29 -30 -31
leaf_value=0.013566186944606254 -0.028202873597602412 -0.0073452903077587915 -0.00062906850596361908 0.038725691275920932 0.018556837760197557 0.0097043806257684547 -0.021885439386507555 -0.01653307906850374 0.013618444829478684 0.015618101166258568 0.019598728587067928 0.018838756681188867 -0.0061101337172999879 0.0043142827306970662 -0.01438507037620531 0.043464602404098156 0.01976427322967211 -0.010577715542625874 0.038606732307669922 0.0077054956378042371 0.0097899369810638768 0.0011301327403395269 0.043103335588399717 0.022628756569022319 0.045375084487146077 0.015961591269403299 0.027601350080980625 -0.01925996442264984 -0.015695030197599918 0.0037117725763033778
leaf_weight=15.135632395744329 195.71878015995026 5.6625927388668051 23.745529934763908 4.8244003504514685 13.59451398253441 2.9544816911220542 5.9955912977457038 5.1289747953414908 20.027324631810188 2.9912436008453351 84.72165022790432 22.255332484841347 5.1619306951761237 36.473438680171967 6.6496257483959198 2.3747000992298153 3.9404786974191648 6.4279406517744064 4.2889084666967383 2.5329077988862991 3.9147593379020718 5.0157549232244518 10.401090934872625 11.785571753978727 3.1072750836610785 12.171028167009352 3.1260840445756894 6.434970036149025 3.243586465716362 7.0398303568363181
leaf_count=66 3 26 107 20 59 13 28 24 89 13 367 97 23 162 30 10 17 29 18 11 17 22 44 51 13 53 14 30 15 31
internal_value=-0.00241149 0.0123812 0.00827076 0.00292587 0.0147536 0.0153516 -8.86599e-06 0.00340092 0.00583738 0.0153669 0.0136616 0.0148756 0.0180838 0.00989201 -0.00470333 0.0178332 0.0130445 0.000745712 0.0194182 0.0286952 0.0204874 0.0248476 0.0343328 0.0164329 0.0256271 0.0209226 -0.0108723 -0.00350055 -0.00314951 0.0136792
internal_weight=536.846 341.127 125.46 71.8158 215.667 53.644 64.4585 48.9018 43.7729 210.005 158.253 148.612 89.8836 58.7288 9.64087 47.446 29.793 10.3684 19.4245 7.35731 51.7515 31.1172 14.3159 16.8013 17.653 14.5457 15.5566 9.56105 6.19807 20.6343
internal_count=1502 1499 557 323 942 234 292 220 196 916 692 649 390 259 43 206 130 46 84 31 224 134 61 73 76 63 72 44 28 90
is_linear=0
shrinkage=0.03


Tree=14
num_leaves=2
num_cat=0
split_feature=25
split_gain=864.276
threshold=19.449999999999822
decision_type=2
left_child=-1
right_child=-2
leaf_value=-0.02839390714777866 0.048387541485711283
leaf_weight=312.39076693356037 228.25076588988304
leaf_count=1499 3
internal_value=0.00401948
internal_weight=540.642
internal_count=1502
is_linear=0
shrinkage=0.03


Tree=15
num_leaves=29
num_cat=0
split_feature=25 8 40 40 36 1 28 36 24 25 6 40 12 25 40 28 1 9 24 40 25 25 4 24 3 26 24 57
split_gain=231.281 3.38188 3.32981 4.95044 3.49006 3.47113 3.46424 4.23538 2.6417 2.53295 2.70301 2.17578 2.03492 2.00222 2.75667 2.60823 2.05425 1.94591 1.90675 1.61451 2.17463 1.12677 0.789205 0.737014 0.619272 0.417654 0.289157 1.15041
threshold=19.449999999999822 2024.3500000000001 1.2989361702127873 1.1978645311978362 1.740837642244583 2331.7500000000005 26.500000000000004 1.5730238433601875 1.5000000000000002 5.4500000000000464 11.049999999999956 1.1891589693728764 11.349999999999911 4.2500000000000009 1.9782791265842121 10.500000000000002 2132.2500000000005 14.750000000000002 1.5000000000000002 0.79292929292930248 1.3999999999999775 1.3000000000000684 2017.0000000000002 2.5000000000000004 2.8499999999999095 1.0000000180025095e-35 1.5000000000000002 -1.0000000180025095e-35
decision_type=2 2 2 2 2 2 2 2 2 2 2 2 2 2 2 2 2 2 2 2 2 2 2 2 2 2 2 2
left_child=1 19 3 6 9 26 7 11 -9 10 12 -3 -4 14 16 -16 -6 18 -8 -1 22 -19 -21 -12 -7 -26 -5 -28
right_child=-2 2 4 5 13 24 17 8 -10 -11 23 -13 -14 -15 15 -17 -18 21 -20 20 -22 -23 -24 -25 25 -27 27 -29
leaf_value=-0.022337630174894766 -0.027937141687907559 0.017427833389616561 0.0087107255124531102 0.021041686957388398 0.020842454205075321 0.051344245970979877 0.011962834770196563 0.018736692833467784 -0.014878826827329323 -0.020869490255170896 0.033084667539994332 -0.0033818620824348474 -0.0024367130897071528 0.038097432662548454 0.0038777804864211225 0.038821693247852423 -0.0072662342704789091 0.035751736896820596 -0.0071758011559629542 0.002514086489419995 0.022638627226408539 0.0070513342603811006 -0.020942169044398089 0.011973031043403488 0.025115699638316124 0.040921557812092238 0.021223469235490108 -0.0063716306832325847
leaf_weight=2.8200349956750852 191.81160739064217 167.53499193489552 45.384285822510719 2.5107315778732326 3.6459218561649376 3.6398693174123755 7.1170661896467271 2.9959017336368543 6.2877532094717026 2.8818897902965537 4.1123149096965781 4.3699374943971625 21.210033506155014 4.346765622496604 3.2161084413528425 5.6963779628276825 5.9680967330932617 2.2388079762458792 13.204753860831259 2.2646832466125488 3.1701263785362244 3.4601406455039978 2.3603854328393936 3.4764130711555481 5.7387501597404462 4.9975563436746597 2.5049225687980652 2.5360482037067413
leaf_count=12 2 732 198 11 16 16 31 13 27 13 18 19 92 19 14 25 26 10 57 10 14 15 10 15 25 22 11 11
internal_value=-0.00160477 0.0132592 0.0137985 0.0158117 0.00914155 0.0294939 0.0143358 0.015811 -0.00362708 0.00601604 0.00712758 0.0168797 0.005117 0.0194694 0.0147567 0.0267278 0.00318941 0.00392732 -0.000300448 -0.00315217 0.00360351 0.0192656 -0.00901168 0.0240851 0.038219 0.0330596 0.0122095 0.00690328
internal_weight=531.502 339.691 329.075 229.137 99.9382 21.9279 207.209 181.189 9.28365 77.0649 74.183 171.905 66.5943 22.8733 18.5265 8.91249 9.61402 26.0208 20.3218 10.6152 7.7952 5.69895 4.62507 7.58873 14.3762 10.7363 7.5517 5.04097
internal_count=1484 1482 1436 1000 436 96 904 791 40 336 323 751 290 100 81 39 42 113 88 46 34 25 20 33 63 47 33 22
is_linear=0
shrinkage=0.03


Tree=16
num_leaves=31
num_cat=0
split_feature=25 40 40 23 1 36 24 8 15 6 36 41 25 8 6 1 3 3 36 40 57 25 34 25 3 25 26 41 20 31
split_gain=214.131 3.3257 5.67771 3.86587 3.69741 2.93594 3.9887 2.79877 2.89109 3.05905 2.51205 2.36116 2.15735 2.3995 2.25718 1.48261 2.28549 1.48364 1.47332 1.29261 1.24464 1.56228 1.15682 1.06968 1.06257 1.00783 0.714062 1.69441 0.924297 0.517979
threshold=19.449999999999822 1.2989361702127873 1.1978645311978362 3.5000000000000004 2331.7500000000005 1.5730238433601875 1.5000000000000002 2024.3500000000001 4.7999999999998417 7.6499999999998645 1.740837642244583 0.84070662841613275 1.3999999999999775 2329.6500000000001 4.2999999999999554 2921.5500000000006 4.8499999999999099 2.1999999999999322 1.3881287726358096 0.79292929292930248 0.088888888888888892 1.5499999999999547 0.095457448398632003 3.9500000000000459 2.8499999999999095 3.2500000000000004 1.0000000180025095e-35 0.55721201452306601 65.112703064510143 0.6078576107927941
decision_type=2 2 2 2 2 2 2 2 2 2 2 2 2 2 2 2 2 2 2 2 2 2 2 2 2 2 2 2 2 2
left_child=1 2 5 10 -4 7 -7 19 -9 -10 15 20 14 29 -12 16 17 -3 -13 -1 21 -5 -17 -15 -6 -8 27 -26 -28 -14
right_child=-2 3 4 11 24 6 25 8 9 -11 12 18 13 23 -16 22 -18 -19 -20 -21 -22 -23 -24 -25 26 -27 28 -29 -30 -31
leaf_value=0.046158013032344618 -0.027830098786398846 0.025366801785346477 0.011781622831954285 -0.019325354866745633 -0.028544468117707649 0.00082292876410397433 0.049675338097659977 -0.012315494862036255 0.01289810054957762 0.0044844996940019933 0.0033519500671138954 0.004226642774138846 0.023732614046022851 -0.027842849191550879 0.03955245970093043 -0.010297405753702093 0.038013746964978661 0.015379190133995069 0.03265306208828743 0.012819634929324952 -0.027418226707179104 0.013921082079931247 0.016599251283443382 -0.00037772888383504039 0.016678321945651615 0.02285494215712347 -0.028669719441377754 -0.01583260001799576 -0.0010763190394019683 0.0024694659460633575
leaf_weight=2.8303319066762915 191.81479993462563 28.192082926630974 7.58094693720341 2.2203582376241675 3.4818382412195197 3.8229483515024167 4.2345327436923981 4.9744937121868125 133.76159100234509 56.797352686524391 3.453739374876025 5.7196634262800199 2.5377659946680051 2.5955453366041183 3.0814523249864578 2.2260079234838477 7.8527232706546775 31.832691714167595 2.4214266091585159 2.2685250490903854 2.3601953536272049 2.6927278637886047 3.3962330669164658 2.8644340038299561 2.5077298581600171 2.9725977629423141 2.6512863487005234 3.1021518558263779 2.2193161696195602 2.3138899058103561
leaf_count=12 2 121 33 10 16 17 18 23 583 250 15 25 11 12 13 10 33 139 10 10 11 12 15 13 11 13 12 14 10 10
internal_value=-0.00250319 0.011824 0.00978239 0.0162838 -0.00477416 0.0112797 0.0264842 0.0104161 0.00981029 0.0104098 0.0186553 0.00216005 0.00785616 -0.000442708 0.0212121 0.0210758 0.0223176 0.0201544 0.0133392 0.0324344 -0.00995732 -0.000591243 0.00543196 -0.0142395 -0.0139964 0.0394879 -0.00865563 -0.000736588 -0.0169748 0.0144522
internal_weight=530.781 338.967 233.206 105.761 21.5433 211.662 11.0301 200.632 195.533 190.559 90.3466 15.4144 16.8468 10.3116 6.53519 73.4997 67.8775 60.0248 8.14109 5.09886 7.27328 4.91309 5.62224 5.45998 13.9623 7.20713 10.4805 5.60988 4.8706 4.85166
internal_count=1484 1482 1022 460 96 926 48 878 856 833 392 68 74 46 28 318 293 260 35 22 33 22 25 25 63 31 47 25 22 21
is_linear=0
shrinkage=0.03


Tree=17
num_leaves=2
num_cat=0
split_feature=25
split_gain=807.054
threshold=19.449999999999822
decision_type=2
left_child=-1
right_child=-2
leaf_value=-0.028051847424342767 0.046364253194924869
leaf_weight=303.53326351940632 230.79921372234821
leaf_count=1482 2
internal_value=0.00408844
internal_weight=534.332
internal_count=1484
is_linear=0
shrinkage=0.03


Tree=18
num_leaves=31
num_cat=0
split_feature=25 8 40 40 23 28 36 1 25 36 34 40 41 25 7 9 24 25 36 40 25 40 25 4 57 25 3 25 42 24
split_gain=219.938 3.15285 3.06862 4.55314 3.29681 3.28368 3.94374 3.15961 2.52603 2.18143 2.07294 2.07194 1.98066 1.89846 1.88012 1.85802 1.82294 1.78934 1.58707 1.53254 2.07552 1.39878 1.05809 0.77043 0.741661 1.42925 0.541734 0.373812 0.366673 0.300271
threshold=19.449999999999822 2024.3500000000001 1.2989361702127873 1.1978645311978362 3.5000000000000004 26.500000000000004 1.5730238433601875 2331.7500000000005 3.2500000000000004 1.740837642244583 0.12285374521618952 1.1891589693728764 0.84070662841613275 0.89999999999997737 2393.4000000000005 14.750000000000002 1.5000000000000002 5.6499999999998645 1.3881287726358096 0.79292929292930248 1.3999999999999775 1.5827439886845742 1.3000000000000684 2017.0000000000002 0.088888888888888892 1.5499999999999547 2.8499999999999095 1.8999999999997501 1.0000000180025095e-35 2.5000000000000004
decision_type=2 2 2 2 2 2 2 2 2 2 2 2 2 2 2 2 2 2 2 2 2 2 2 2 2 2 2 2 2 2
left_child=1 19 3 5 9 6 11 29 -8 17 13 -3 24 -11 -12 16 -7 21 27 -1 23 -4 -17 -21 25 -6 -9 -14 -28 -5
right_child=-2 2 4 7 12 15 8 26 -10 10 14 -13 18 -15 -16 22 -18 -19 -20 20 -22 -23 -24 -25 -26 -27 28 -29 -30 -31
leaf_value=-0.021864873706419406 -0.027583092507766607 0.016823981704632927 0.00026960656725951571 0.0043905400241615357 0.041306143236788259 0.011523272155733877 -0.016340084788193269 0.04888220722352949 0.015179667314479091 0.016472981149070746 0.012046393783216007 -0.0034594368285179936 0.026700525347494907 -0.019736939421012092 0.037283617940988535 0.03450788501453643 -0.0071549749199824901 -0.019668043645654155 -0.010073816249589267 0.0024893809975908678 0.022001833022751192 0.0091828384902730917 0.0067754710074437834 -0.02070272354019707 0.047244086056086376 0.0077413262225333882 0.039079128077173481 0.0087055274593502447 0.024119603286548767 0.017852592936057777
leaf_weight=2.7899015843868238 188.02284963428974 168.6693349480629 30.916717737913132 3.7116073071956661 2.2894226908683759 7.1548101752996507 5.5930720716714841 3.7084545642137519 3.6687958687543869 2.7532255500555065 7.1038914471864683 4.3749707937240592 2.9387145340442657 2.298588290810585 4.8950237184762955 2.2668786942958823 13.200326934456823 2.6202966421842566 2.2158905267715454 2.2654595226049423 3.1928247213363647 34.04234716296196 3.4726658761501312 2.3483842462301254 2.5619786083698273 2.8219263106584549 5.0771139264106733 2.7942735403776169 5.7960685342550278 3.8774714916944504
leaf_count=12 2 732 134 16 10 31 24 16 16 12 31 19 13 10 21 10 57 12 10 10 14 148 15 10 11 12 22 12 25 17
internal_value=-0.00153072 0.0128116 0.0133293 0.0152547 0.00886017 0.0138388 0.0152685 0.0283079 -0.00350531 0.00645647 0.0160736 0.0162921 0.0215671 0 0.0228131 0.00371519 -0.00041869 0.00396551 0.0103122 -0.00304199 0.00349686 0.00499371 0.0186457 -0.00886743 0.0325575 0.0238551 0.0365554 0.0187436 0.0316707 0.0118016
internal_weight=529.443 341.42 330.824 230.572 100.252 208.401 182.306 22.1707 9.26187 84.6301 17.0507 173.044 15.6222 5.05181 11.9989 26.0947 20.3551 67.5794 7.94888 10.5966 7.80667 64.9591 5.73954 4.61384 7.67333 5.11135 14.5816 5.73299 10.8732 7.58908
internal_count=1484 1482 1436 1000 436 904 791 96 40 368 74 751 68 22 52 113 88 294 35 46 34 282 25 20 33 22 63 25 47 33
is_linear=0
shrinkage=0.03


Tree=19
num_leaves=31
num_cat=0
split_feature=25 40 40 23 2 28 36 8 25 36 41 41 25 8 6 9 24 18 2 25 35 25 25 36 57 25 40 25 12 25
split_gain=203.891 3.07648 5.30873 3.62383 3.48959 2.81794 3.41433 2.96967 2.45684 2.31027 2.26384 2.2274 2.03446 2.28656 2.08905 1.947 1.7961 4.48654 1.52581 1.39776 1.77835 2.20561 1.62055 1.38782 1.21281 1.50074 1.17572 1.15648 1.06716 1.0479
threshold=19.449999999999822 1.2989361702127873 1.1978645311978362 3.5000000000000004 2327.6000000000004 26.500000000000004 1.5730238433601875 2024.3500000000001 3.2500000000000004 1.740837642244583 1.1873288392669619 0.84070662841613275 1.3999999999999775 2329.6500000000001 4.2999999999999554 14.750000000000002 1.5000000000000002 8.6500000000000927 2335.3000000000006 5.2000000000000464 0.85523480906683502 1.3999999999999775 2.8499999999999095 1.3881287726358096 0.088888888888888892 1.5499999999999547 0.79292929292930248 1.3000000000000684 36.649999999999871 3.9500000000000459
decision_type=2 2 2 2 2 2 2 2 2 2 2 2 2 2 2 2 2 2 2 2 2 2 2 2 2 2 2 2 2 2
left_child=1 2 5 9 -4 6 7 26 28 19 -9 24 14 -14 -11 16 17 -7 -18 20 22 -22 -3 -13 25 -5 -1 -17 -8 -15
right_child=-2 3 4 11 -6 15 8 10 -10 12 -12 23 13 29 -16 27 18 -19 -20 -21 21 -23 -24 -25 -26 -27 -28 -29 -30 -31
leaf_value=0.043965530940212126 -0.027475003276681571 0.019679028837708668 0.011378899457110153 -0.019020048315699003 -0.013654095294527505 -0.020279193045410555 0.051052791017183269 0.01042598189019401 0.0069061649415876588 0.0032754768516829458 0.0031096844672085047 0.0039852664694769776 0.01401668787204737 -0.027541443469324876 0.038027210947582747 -0.011540040867287233 0.0081378949284493136 0.028700368153457553 0.036112134879371809 0.038527937455003436 0.0065067199142250396 0.040943777319135476 0.0070431148651431165 0.031487539250855061 -0.027121164911666731 0.013592975019266663 0.012251786370693716 0.015177607749045049 0.020267279826359855 -0.00027810250306432345
leaf_weight=2.8841245621442786 188.03855267167091 48.494440123438835 7.618044555187228 2.2056763768196097 13.861883610486982 2.4392333924770417 3.3738935291767103 111.97752436995506 3.6732155531644821 3.4567890018224743 59.862898901104927 5.7381782084703428 4.8767977654933912 2.5696740746498108 3.1224217712879181 2.2767103016376486 2.5199745148420325 4.6918964385986328 10.854803532361982 3.9158130586147299 2.5728687047958356 6.6821199208498001 12.430844768881796 2.4445522725582123 2.3366736471652985 2.7038361430168152 2.2858252376317978 3.457568496465683 2.3058879226446152 2.8590877503156662
leaf_count=12 2 208 33 10 63 11 14 487 16 15 264 25 21 12 13 10 11 20 46 16 11 28 55 10 11 12 10 15 10 13
internal_value=-0.0024049 0.0114353 0.00947247 0.0157122 -0.00462532 0.0109124 0.00957606 0.00860714 0.027311 0.0179944 0.00789799 0.00203242 0.00763028 -0.000441244 0.0205398 0.0202172 0.024554 0.0114831 0.0311636 0.0203022 0.0191892 0.0318629 0.0171658 0.0128446 -0.00977746 -0.000547279 0.0310115 0.00403958 0.0396404 -0.0139904
internal_weight=528.532 340.493 234.083 106.41 21.4799 212.604 186.363 177.01 9.353 90.9809 171.84 15.4289 16.8848 10.3056 6.57921 26.2402 20.5059 7.13113 13.3748 74.0961 70.1803 9.25499 60.9253 8.18273 7.24619 4.90951 5.16995 5.73428 5.67978 5.42876
internal_count=1484 1482 1022 460 96 926 813 773 40 392 751 68 74 46 28 113 88 31 57 318 302 39 263 35 33 22 22 25 24 25
is_linear=0
shrinkage=0.03


Tree=20
num_leaves=2
num_cat=0
split_feature=25
split_gain=757.788
threshold=19.449999999999822
decision_type=2
left_child=-1
right_child=-2
leaf_value=-0.027730866336184393 0.044470830030917646
leaf_weight=298.2401861846447 232.88681069016457
leaf_count=1482 2
internal_value=0.00392466
internal_weight=531.127
internal_count=1484
is_linear=0
shrinkage=0.03


Tree=21
num_leaves=28
num_cat=0
split_feature=25 8 6 19 24 3 29 15 1 28 6 57 1 40 36 34 15 40 25 23 25 57 1 4 18 34 34
split_gain=209.231 2.944 2.84185 4.02482 3.61966 3.47468 3.22772 3.12696 3.07686 2.27548 2.42407 2.28746 1.9315 1.81764 1.53844 2.63064 1.53174 1.45322 1.98269 1.24754 1.1833 1.17288 0.793182 0.750719 0.703347 0.605844 0.160091
threshold=19.449999999999822 2024.3500000000001 7.7999999999999554 22.065000000000023 2.5000000000000004 4.2999999999999554 10.500000000000002 4.7999999999998417 2674.0500000000006 29.500000000000004 2.7500000000000004 -0.23611111111111108 2609.4000000000001 1.2989361702127873 0.83686282119324806 0.14088394007181826 23.599999999999913 0.79292929292930248 1.3999999999999775 1.0000000180025095e-35 3.8999999999997503 1.0000000180025095e-35 2683.7000000000003 2017.0000000000002 10.549999999999956 0.076345691165369198 0.14678579633159103
decision_type=2 2 2 2 2 2 2 2 2 2 2 2 2 2 2 2 2 2 2 2 2 2 2 2 2 2 2
left_child=1 17 7 8 5 22 -6 26 12 10 11 -9 19 -12 25 -16 20 -1 23 -4 -10 -14 -5 -19 -8 -11 -3
right_child=-2 2 3 4 6 -7 24 9 16 14 13 -13 21 -15 15 -17 -18 18 -20 -21 -22 -23 -24 -25 -26 -27 -28
leaf_value=-0.021403730142651161 -0.027245662265232624 0.040821026326681019 0.033595929339578189 -0.029439528306087613 -0.0024363835106334794 0.020010173345979196 0.018301000970480701 -0.02805460272562376 0.023109708948209132 0.0017622633465714788 0.014065529293199056 0.0048429073806415483 0.018789097635268381 0.008201730998092488 0.028282872374996409 -0.012458312205840446 -0.0080894845291645447 0.0024374057075945417 0.021387136994431007 0.019109013204514066 -0.00058725385555807299 0.046721775640600441 -0.0052180282650298934 -0.020467607673911137 0.045523748578565053 -0.015506038482385659 0.022640310005041769
leaf_weight=2.7587045729160291 184.16862334311008 3.0495803505182257 7.6060396134853354 3.7558528780937213 3.4828771948814374 2.5309988707304001 2.2636674791574478 2.3210958987474433 5.1539504081010801 2.2860334664583188 152.12133130431175 8.5219417661428434 2.5723034888505918 74.633048132061958 3.1754035949707031 2.3282088935375214 3.6428841203451157 2.2673064768314362 3.2142739444971085 31.858670592308044 2.5835361927747726 5.7776948660612106 2.3470252454280853 2.3363524526357651 2.6898053884506226 5.3475638180971146 2.3576625734567642
leaf_count=12 2 13 33 16 15 11 10 10 22 10 656 37 11 324 14 10 16 10 14 137 11 25 10 10 12 23 10
internal_value=-0.00145636 0.0123866 0.0128841 0.0180432 0.00494427 -0.00843112 0.0189227 0.0113298 0.0217553 0.0108158 0.0114888 -0.00211711 0.0251158 0.0121532 -0.00112402 0.0105979 0.0072788 -0.00294103 0.00338303 0.0220548 0.014908 0.038796 -0.0208424 -0.00873707 0.0342853 -0.00999086 0.0339937
internal_weight=527.152 342.984 332.407 76.2653 17.0702 8.63388 8.43635 256.142 59.1951 250.735 237.597 10.843 47.8147 226.754 13.1372 5.50361 11.3804 10.5766 7.81793 39.4647 7.73749 8.35 6.10288 4.60366 4.95347 7.6336 5.40724
internal_count=1484 1482 1436 329 74 37 37 1107 255 1084 1027 47 206 980 57 24 49 46 34 170 33 36 26 20 22 33 23
is_linear=0
shrinkage=0.03


Tree=22
num_leaves=31
num_cat=0
split_feature=25 40 40 23 2 28 40 16 36 36 41 25 16 6 9 24 18 2 2 2 3 3 36 57 25 34 25 40 25 3
split_gain=194.23 2.84514 4.95877 3.35809 3.288 2.59527 3.21011 2.67034 2.49691 2.12551 2.09344 1.89855 2.16436 1.94306 1.79448 1.63762 4.28525 1.52539 1.42929 1.34094 2.07458 1.37863 1.28288 1.165 1.41533 1.10971 1.08334 1.07549 1.02741 1.02184
threshold=19.449999999999822 1.2989361702127873 1.1978645311978362 3.5000000000000004 2327.6000000000004 26.500000000000004 1.1891589693728764 2028.7500000000002 1.6703288611010854 1.740837642244583 0.84070662841613275 1.3999999999999775 2341.8500000000008 4.2999999999999554 14.750000000000002 1.5000000000000002 8.6500000000000927 2678.2000000000003 2335.3000000000006 2916.7000000000003 4.8499999999999099 2.1999999999999322 1.3881287726358096 0.088888888888888892 1.5499999999999547 0.095457448398632003 1.3000000000000684 0.79292929292930248 3.9500000000000459 2.8499999999999095
decision_type=2 2 2 2 2 2 2 2 2 2 2 2 2 2 2 2 2 2 2 2 2 2 2 2 2 2 2 2 2 2
left_child=1 2 5 9 -4 6 7 27 -9 19 23 13 -13 -11 15 16 -7 -8 -17 20 21 -3 -12 24 -5 -21 -16 -1 -14 -6
right_child=-2 3 4 10 29 14 17 8 -10 11 22 12 28 -15 26 18 -18 -19 -20 25 -22 -23 -24 -25 -26 -27 -28 -29 -30 -31
leaf_value=0.041981688571917038 -0.027136285499646438 0.023647792689157371 0.01099201686589746 -0.018599480385072881 -0.027761942777114891 -0.020076623917561858 0.048029066220875404 0.0071206223352929731 0.025395294528910945 0.0031103909811037124 0.0038677188521592043 0.013572263521844513 -0.027204261178546334 0.036543814620978401 -0.011224857074647578 0.0076193234821284785 0.027782560359801287 0.014567467153393245 0.034608741006630903 -0.010636535997647896 0.035527170715840599 0.014105930182239842 0.030257659566473576 -0.026688599949025629 0.013111270715612697 0.015626713222259538 0.014630780457590085 0.011711141750958125 -0.00011725319589717202 -0.0080637391054110934
leaf_weight=2.9303561151027671 184.197081387043 28.668588519096375 7.6534600406885174 2.1838625520467749 3.3912032246589652 2.4279221743345323 2.701335906982421 168.9805688560009 7.0816259384155265 3.4640527069568661 5.7474960535764676 4.9015116542577726 2.5389033257961273 3.1602126359939575 2.2644271254539481 2.5369677543640128 4.7340459227561951 3.0242443382740021 11.000122025609015 2.2402310073375693 8.012376204133032 32.294759005308151 2.4672227054834366 2.2994870245456696 2.7210658639669418 3.4371467530727386 3.4799990504980087 2.3019023686647415 2.850786417722702 10.366308912634848
leaf_count=12 2 121 33 10 16 11 11 737 30 15 25 21 12 13 10 11 20 13 46 10 33 139 10 11 12 15 15 10 13 47
internal_value=-0.00230585 0.0110682 0.00918096 0.0151708 -0.00446721 0.0105654 0.00928145 0.0085487 0.0078867 0.0173542 0.00198238 0.00740342 -0.000409343 0.0198128 0.0194639 0.0235974 0.011092 0.0314231 0.0298636 0.0195559 0.0207234 0.0186736 0.0124231 -0.00951888 -0.000497689 0.00473953 0.00390762 0.0296963 -0.0136866 -0.0133011
internal_weight=526.059 341.862 234.874 106.988 21.411 213.464 187.02 181.294 176.062 91.5686 15.4191 16.9155 10.2912 6.62427 26.4435 20.6991 7.16197 5.72558 13.5371 74.6531 68.9757 60.9633 8.21472 7.20442 4.90493 5.67738 5.74443 5.23226 5.38969 13.7575
internal_count=1484 1482 1022 460 96 926 813 789 767 392 68 74 46 28 113 88 31 24 57 318 293 260 35 33 22 25 25 22 25 63
is_linear=0
shrinkage=0.03


Tree=23
num_leaves=2
num_cat=0
split_feature=25
split_gain=712.98
threshold=19.449999999999822
decision_type=2
left_child=-1
right_child=-2
leaf_value=-0.027427915128703878 0.042763969390712607
leaf_weight=292.94252683222294 234.31834417581558
leaf_count=1482 2
internal_value=0.00376234
internal_weight=527.261
internal_count=1484
is_linear=0
shrinkage=0.03


Tree=24
num_leaves=28
num_cat=0
split_feature=25 8 22 6 4 39 34 40 3 34 12 34 40 25 18 34 25 25 41 34 25 12 28 15 41 4 24
split_gain=199.101 2.74423 2.68377 2.74372 4.46906 2.98474 2.83055 2.36095 2.27711 2.10523 1.4605 1.43564 1.37963 1.89382 1.35728 1.33931 1.43783 1.30805 1.28164 1.14994 1.5669 1.78176 1.62941 1.02956 1.0048 0.733204 0.472793
threshold=19.449999999999822 2024.3500000000001 2.5000000000000004 7.7999999999999554 2672.9500000000003 1.1500000000000912 0.44673960147974945 0.79292929292930248 6.0499999999999554 0.22627982076824207 32.150000000000098 0.1665287144172781 0.79292929292930248 1.3999999999999775 15.399999999999865 0.089285714285717924 5.7999999999999554 1.7500000000000002 0.48295759527643717 0.049708095433124481 3.2999999999998413 21.10000000000014 13.500000000000002 12.149999999999865 0.58815073815073937 2017.0000000000002 2.5000000000000004
decision_type=2 2 2 2 2 2 2 2 2 2 2 2 2 2 2 2 2 2 2 2 2 2 2 2 2 2 2
left_child=1 12 3 5 7 6 8 17 -3 11 19 -7 -1 25 -8 24 -17 -5 -9 -4 22 -22 -21 -11 -6 -14 -12
right_child=-2 2 10 4 15 9 14 18 -10 23 26 -13 13 -15 -16 16 -18 -19 -20 20 21 -23 -24 -25 -26 -27 -28
leaf_value=-0.020953623013493784 -0.026924046650448879 0.010356653558659151 0.00076440336503798083 -0.0047787845784573683 0.005103331714215959 0.019439571145730229 -0.028281717275079485 0.01696717797666307 4.0027663048532726e-05 0.015766918613041379 -0.0047963709665462054 0 0.0024243403001946145 0.020812974611468717 0.0021147251481283989 0.013426005807260345 -0.008581411684524835 0.016892294835907075 0.03184897902940368 0.040035327753891334 0.025874358713002935 -0.0017112015778512077 0.021613013608682292 0.044132690775040485 -0.020949784701171863 -0.020231605701739725 0.013053999653268131
leaf_weight=2.7265578359365445 180.26064395904541 178.35543639957905 2.3256577700376502 3.0437179505825034 2.5567178875207928 12.354293838143354 2.5507077276706687 8.9184334874153155 22.240500465035439 2.3385732024908057 2.3270705491304389 4.7624214738607398 2.2676555067300797 3.2339753657579422 2.2773116528987885 17.346446782350544 2.9105143547058097 9.8187457621097547 20.713143035769463 7.6550446599721971 3.935390278697013 3.9939514398574829 14.39927104115486 4.1837501525878906 2.3565891832113266 2.3237872719764709 2.5266781598329544
leaf_count=12 2 768 10 13 11 53 11 38 96 10 10 20 10 14 10 74 13 42 89 33 17 17 62 18 10 10 11
internal_value=-0.0013822 0.0119801 0.0124578 0.0114748 0.0168513 0.00986683 0.00867128 0.0228065 0.00922837 0.0200495 0.0201743 0.0140825 -0.00282894 0.0032923 -0.0135834 0.00662813 0.01009 0.0115354 0.0275429 0.0224969 0.0240747 0.0117578 0.0282947 0.0348068 -0.00696285 -0.00858949 0.00396619
internal_weight=524.703 344.442 333.89 296.727 67.6643 229.063 205.424 42.494 200.596 23.639 37.1631 17.1167 10.552 7.82542 4.82802 25.1703 20.257 12.8625 29.6316 32.3093 29.9837 7.92934 22.0543 6.52232 4.91331 4.59144 4.85375
internal_count=1484 1482 1436 1276 290 986 885 182 864 101 160 73 46 34 21 108 87 55 127 139 129 34 95 28 21 20 21
is_linear=0
shrinkage=0.03


Tree=25
num_leaves=31
num_cat=0
split_feature=25 40 40 55 1 28 40 8 36 36 41 25 35 6 9 24 18 1 2 25 35 25 25 36 57 25 27 25 3 40
split_gain=185.099 2.63364 4.72247 3.16375 3.14127 2.41418 3.01265 2.45312 2.35384 1.99834 1.99592 1.80916 2.09339 1.84357 1.68673 1.53688 4.07068 1.40997 1.31387 1.29008 1.62591 2.05004 1.53373 1.21938 1.12044 1.36536 1.0983 1.03026 0.992185 0.988956
threshold=19.449999999999822 1.2989361702127873 1.1978645311978362 1.0000000180025095e-35 2331.7500000000005 26.500000000000004 1.1891589693728764 2024.3500000000001 1.6703288611010854 1.740837642244583 0.84070662841613275 1.3999999999999775 1.0361480015196141 4.2999999999999554 14.750000000000002 1.5000000000000002 8.6500000000000927 2680.2000000000003 2335.3000000000006 5.2000000000000464 0.85523480906683502 1.3999999999999775 2.8499999999999095 1.3881287726358096 0.088888888888888892 1.5499999999999547 2.5000000000000004 1.3000000000000684 2.8499999999999095 0.79292929292930248
decision_type=2 2 2 2 2 2 2 2 2 2 2 2 2 2 2 2 2 2 2 2 2 2 2 2 2 2 2 2 2 2
left_child=1 2 5 9 -4 6 7 29 -9 19 24 13 -13 -11 15 16 -7 -8 -17 20 22 -22 -3 -12 25 -5 -14 -16 -6 -1
right_child=-2 3 4 10 28 14 17 8 -10 11 23 12 26 -15 27 18 -18 -19 -20 -21 21 -23 -24 -25 -26 -27 -28 -29 -30 -31
leaf_value=0.040178085463068648 -0.026813151631104152 0.018327180194667395 0.010623553615145886 -0.018435662567708424 -0.027456233985533113 -0.019842086766455748 0.046246591570797711 0.0069171117282355735 0.024602612044478122 0.0029051895783977263 0.0036657144237088896 -0.02677230791134191 -0.00093004696739978378 0.035396255826007118 -0.011065151246402675 0.0074353496618719435 0.026807835069691172 0.014121460927553297 0.033348857547957994 0.036259964353397095 0.005522383933048226 0.038476475859548324 0.0061285799915056912 0.029340496147622783 -0.026383299595405633 0.012698922179327103 0.021927452727289583 0.014138691498873921 -0.0079474474927823339 0.011195657996005772
leaf_weight=2.9694004505872718 180.30205565690994 49.161861523985863 7.6866761595010784 2.1750983446836463 3.3520168215036383 2.41426350176335 2.7349266558885565 169.40559025108814 7.1347132325172415 3.4732896685600307 5.7625250369310361 2.1011966168880454 5.6091764718294126 3.1879713386297226 2.258337900042533 2.542499676346778 4.7774356603622437 3.0393629223108292 11.115753665566443 3.9764700531959525 2.6013180613517743 6.814012885093689 12.581370607018469 2.4827995449304581 2.2724894881248474 2.7356855273246765 2.5882739871740341 3.4998504668474197 10.343484640121458 2.3168126493692398
leaf_count=12 2 208 33 10 16 11 11 737 30 15 25 10 25 13 10 11 20 13 46 16 11 28 55 10 11 12 11 15 47 10
internal_value=-0.0022063 0.0107196 0.00890399 0.0146578 -0.00442489 0.0102499 0.00901062 0.0082993 0.00766236 0.0167664 0.00185104 0.00712015 -0.000509097 0.0191921 0.0188088 0.0227946 0.0106786 0.0303761 0.0288322 0.0188916 0.0178294 0.0298407 0.0159039 0.0120152 -0.0094088 -0.000585297 0.00610274 0.0037216 -0.0131042 0.0284765
internal_weight=523.417 343.115 235.591 107.524 21.3822 214.209 187.601 181.827 176.54 92.0949 15.4286 16.9599 10.2986 6.66126 26.6081 20.85 7.1917 5.77429 13.6583 75.135 71.1586 9.41533 61.7432 8.24532 7.18327 4.91078 8.19745 5.75819 13.6955 5.28621
internal_count=1484 1482 1022 460 96 926 813 789 767 392 68 74 46 28 113 88 31 24 57 318 302 39 263 35 33 22 36 25 63 22
is_linear=0
shrinkage=0.03


Tree=26
num_leaves=2
num_cat=0
split_feature=25
split_gain=672.057
threshold=19.449999999999822
decision_type=2
left_child=-1
right_child=-2
leaf_value=-0.027141517237865467 0.041218975541467508
leaf_weight=287.64241127669811 235.13596788048744
leaf_count=1482 2
internal_value=0.00360202
internal_weight=522.778
internal_count=1484
is_linear=0
shrinkage=0.03


Tree=27
num_leaves=30
num_cat=0
split_feature=25 8 22 6 4 39 34 40 3 34 19 57 19 57 34 18 40 25 34 34 25 40 41 37 57 4 24 41 40
split_gain=189.53 2.56198 2.54178 2.58771 4.18402 2.81703 2.70992 2.21003 2.1291 1.98097 1.6326 1.42266 1.63302 1.9038 1.37173 1.3173 1.30835 1.81047 1.2939 1.28103 1.36756 0.986856 0.971991 0.971814 0.906518 0.714758 0.622171 1.11211 0.468375
threshold=19.449999999999822 2024.3500000000001 2.5000000000000004 7.7999999999999554 2672.9500000000003 1.1500000000000912 0.44673960147974945 0.79292929292930248 6.0499999999999554 0.22627982076824207 20.735000000000085 0.13392857142857145 12.715000000000011 0.088888888888888892 0.1665287144172781 15.399999999999865 0.79292929292930248 1.3999999999999775 0.21041832588650547 0.089285714285717924 5.7999999999999554 0.63656045751636336 0.58815073815073937 0.75807474629194493 0.23611111111111113 2017.0000000000002 1.5000000000000002 1.1917446808511112 0.59564050485998299
decision_type=2 2 2 2 2 2 2 2 2 2 2 2 2 2 2 2 2 2 2 2 2 2 2 2 2 2 2 2 2
left_child=1 16 3 5 7 6 8 18 -3 14 -9 12 26 21 -7 -8 -1 25 -5 22 -21 -14 -6 -11 -13 -18 -4 -28 -15
right_child=-2 2 11 4 19 9 15 10 -10 23 -12 24 13 28 -16 -17 17 -19 -20 20 -22 -23 -24 -25 -26 -27 27 -29 -30
leaf_value=-0.020513982706595015 -0.026617477728645145 0.010003858263483364 0.012950820144096004 0.018591536708772921 0.0049250822337514807 0.018823122595423826 -0.028014870696203634 0.029838890795876233 2.5598631795206058e-05 0.046948606655866809 0.0099131582366158381 0.040977231970707746 0.011790393873187293 0.0055877569860138723 0 0.0019530031773327254 0.0023837723237003223 0.02025662074675566 -0.00029560506769255821 0.013027723085761765 -0.0084443977754505208 0.03020370964910888 -0.020705642329588953 0.02044646549535574 0.015849667859487403 -0.019999956864264215 0.018252838735630283 0.046398415339942579 -0.011152527115216398
leaf_weight=2.6935732215642911 176.31013834476471 179.03840136528015 2.8564381897449511 7.9420309215784055 2.5623271614313152 12.428728163242345 2.5288133323192588 24.794454962015156 22.238749325275421 3.0383963584899893 5.0662337243556967 4.3959375172853461 11.453550949692728 2.5345970690250388 4.7695339769124976 2.2826642394065857 2.2690881490707397 3.2525674402713776 4.9740042984485626 17.413430482149128 2.9017388969659796 3.9483115226030341 2.3443005830049515 3.5409023612737656 2.7675175368785858 2.3112282603979111 3.3141322284936905 3.0518189966678619 3.0622297823429108
leaf_count=12 2 768 12 34 11 53 11 105 96 13 22 19 49 11 20 10 10 14 21 74 13 17 10 15 12 10 14 13 13
internal_value=-0.00130767 0.011593 0.0120523 0.0110961 0.0163053 0.00953567 0.00837415 0.0220411 0.00891684 0.0194001 0.0266027 0.0195407 0.0163845 0.0114201 0.0136106 -0.0134364 -0.00272647 0.00319362 0.0111412 0.00641004 0.00978744 0.0168686 -0.00689059 0.0336543 0.0320344 -0.00845607 0.0271224 0.0327186 -0.00307985
internal_weight=522.086 345.776 335.249 297.865 67.9985 229.866 206.089 42.7767 201.277 23.7776 29.8607 37.3845 30.2211 20.9987 17.1983 4.81148 10.5265 7.83288 12.916 25.2218 20.3152 15.4019 4.90663 6.5793 7.16346 4.58032 9.22239 6.36595 5.59683
internal_count=1484 1482 1436 1276 290 986 885 182 864 101 127 160 129 90 73 21 46 34 55 108 87 66 21 28 31 20 39 27 24
is_linear=0
shrinkage=0.03


Tree=28
num_leaves=31
num_cat=0
split_feature=25 40 40 36 1 28 40 8 41 6 9 28 34 41 22 15 24 18 1 19 2 36 41 22 25 19 25 3 40 42
split_gain=176.464 2.48816 4.51368 3.02107 2.99207 2.2902 2.842 2.26257 2.25901 2.03664 1.59418 1.48733 3.72203 3.87662 1.9196 1.83619 1.45697 3.8761 1.33131 1.27701 1.22934 1.13311 1.05745 1.63439 0.988827 1.10188 0.985383 0.968459 0.913755 0.682623
threshold=19.449999999999822 1.2989361702127873 1.1978645311978362 2.0744755967122224 2331.7500000000005 26.500000000000004 1.1891589693728764 2024.3500000000001 1.1873288392669619 9.7500000000002292 14.750000000000002 26.500000000000004 0.13093289689034268 0.56035150674876955 1.0000000180025095e-35 14.450000000000047 1.5000000000000002 8.6500000000000927 2680.2000000000003 20.627500000000058 2335.3000000000006 1.1233239546300628 0.32980915202776079 1.5000000000000002 4.2000000000000464 19.680000000000032 1.3000000000000684 2.8499999999999095 0.79292929292930248 1.0000000180025095e-35
decision_type=2 2 2 2 2 2 2 2 2 2 2 2 2 2 2 2 2 2 2 2 2 2 2 2 2 2 2 2 2 2
left_child=1 2 5 9 -4 6 7 28 -9 11 16 14 21 -14 19 -16 17 -7 -8 -3 -18 -13 -5 -24 25 -11 -12 -6 -1 -29
right_child=-2 3 4 22 27 10 18 8 -10 24 26 12 13 -15 15 -17 20 -19 -20 -21 -22 -23 23 -25 -26 -27 -28 29 -30 -31
leaf_value=0.038531125167289168 -0.026504839337254837 0.0095391994892419368 0.010209104774737569 0.014085125595597794 -0.027196740394637368 -0.019604565687285438 0.044755304643279141 0.0098662367395849025 0.0026318391218684515 -0.019508460329332546 -0.010911301420680326 -0.022744275928562225 -0.010793952232858946 0.034311155953181321 0.013572416805843398 0.027239559802140687 0.0072281642787132448 0.025933713939610224 0.01361553181685379 0.030447022310521994 0.032308598612042216 0.0027851214806242294 -0.010954623488461117 0.016886482302609175 0.018856906000120851 0.0051634823741692265 0.013731906327294261 -0.016047570780000204 0.010703649884962488 -8.8843626498715878e-05
leaf_weight=3.0016374588012686 176.36465652287006 22.053593426942829 7.7226768732070949 3.9432984590530387 3.3169833272695533 2.4003712236881318 2.7610196918249121 116.78469629585743 60.25327256321907 2.3795116543769819 2.2522268593311301 2.9271656572818747 2.2429950535297376 5.7668372243642807 14.214781686663626 31.71110811829567 2.5488990545272818 4.814886212348938 3.0564371794462204 3.1477961987256995 11.20712426304817 2.8258424401283264 7.6660296022891981 2.3594760149717331 2.3317736834287643 4.3898239284753799 3.5161407142877579 4.769960939884184 2.3306050896644592 5.5505362302064896
leaf_count=12 2 94 33 17 16 11 11 503 264 11 10 13 10 24 60 132 11 20 13 13 46 12 35 10 10 19 15 22 10 25
internal_value=-0.00210671 0.0103883 0.00862472 0.0142088 -0.00441382 0.00993594 0.0087292 0.00803736 0.00742389 0.0161438 0.0182527 0.0175941 0.00810122 0.0213331 0.0193749 0.0231132 0.022111 0.010313 0.0294083 0.0123793 0.0279636 -0.0098585 0.000953054 -0.00400395 0.00224619 -0.00323005 0.00357691 -0.012927 0.0273415 -0.00783581
internal_weight=520.612 344.248 236.287 107.96 21.3602 214.927 188.188 182.37 177.038 93.9912 26.7396 84.8901 13.7628 8.00983 71.1273 45.9259 20.9713 7.21526 5.81746 25.2014 13.756 5.75301 13.9688 10.0255 9.10111 6.76934 5.76837 13.6375 5.33224 10.3205
internal_count=1484 1482 1022 460 96 926 813 789 767 398 113 358 59 34 299 192 88 31 24 107 57 25 62 45 40 30 25 63 22 47
is_linear=0
shrinkage=0.03


Tree=29
num_leaves=2
num_cat=0
split_feature=25
split_gain=634.565
threshold=19.449999999999822
decision_type=2
left_child=-1
right_child=-2
leaf_value=-0.026870906155573568 0.039815278530387396
leaf_weight=282.35889403522015 235.38146954774857
leaf_count=1482 2
internal_value=0.00344283
internal_weight=517.74
internal_count=1484
is_linear=0
shrinkage=0.03


Tree=30
num_leaves=29
num_cat=0
split_feature=17 7 6 3 48 37 30 6 12 37 25 57 3 36 36 37 3 7 33 42 56 8 57 15 7 25 25 25
split_gain=3.83739 2.90233 2.61196 3.0619 5.0896 3.89081 2.90669 2.84535 2.68988 2.50323 3.90197 2.17685 2.03767 1.94269 1.91617 1.83829 1.64199 1.50405 1.29402 1.14215 1.00833 1.76469 0.814162 0.758752 0.67603 0.51366 0.432665 0.282731
threshold=2025.4000000000003 2956.7500000000005 6.9500000000000464 3.4499999999998185 1.0000000180025095e-35 1.9813111696953747 2.5000000000000004 6.3500000000001373 38.150000000000098 1.5307934087075621 2.1500000000000914 -0.11805555555555554 5.1499999999998645 1.0673251038102081 1.7210803784898399 0.41664976360206879 3.1000000000001369 2373.8500000000004 10.500000000000002 1.0000000180025095e-35 1.0000000180025095e-35 2020.3500000000001 1.0000000180025095e-35 25.299999999999731 2969.8000000000006 1.949999999999932 2.6000000000000232 1.4500000000000457
decision_type=2 2 2 2 2 2 2 2 2 2 2 2 2 2 2 2 2 2 2 2 2 2 2 2 2 2 2 2
left_child=20 2 3 4 5 6 -2 16 14 11 -11 12 -5 -13 15 19 -6 -17 -10 -4 21 -1 -22 -16 -3 -9 -26 -7
right_child=1 24 8 9 7 27 -8 25 18 10 -12 13 -14 -15 23 17 -18 -19 -20 -21 22 -23 -24 -25 26 -27 -28 -29
leaf_value=-0.024586471867571277 0.021614543087679086 0.038441874614619391 0.014616529363030716 0.0034078432830966167 -0.0017060940990284942 -0.013019702445961389 0.010704847509723434 0.033317693931737835 -0.021751819815282313 0.042900684131740169 -0.0014328078039482703 0.00073779757866708864 -0.014713227342173681 0.013612913722134967 -0.012832590456766395 0.0090391499887823874 0.014616549700296626 0.020326972218003558 0.0072671017980663645 -0.007317113337108095 0.014732834507708526 0.0057892418241091426 -0.007637027919416145 0.0077793884246588046 0.0073735190112729256 0.013152921917620901 0.027443684373244435 0
leaf_weight=4.3605222702026349 52.965748757123947 3.9803307801485044 4.0087187141180021 10.824713066220285 36.619860991835594 3.4687237292528144 40.716640368103981 2.5613679140806189 2.386751025915145 3.4877099096775046 3.2968099564313889 27.139449179172516 10.941392481327055 17.742365717887878 2.3335045129060736 14.049431696534155 6.4114243537187567 69.533302411437035 2.831883043050766 4.1883080005645752 2.9101814478635788 2.529646173119545 2.5881799012422562 4.5726076066493988 2.3567540794610977 3.7586144953966141 2.8113527148962021 2.5163044184446335
leaf_count=19 226 17 17 46 157 15 174 11 10 15 14 115 47 76 10 60 27 296 12 18 13 11 11 19 10 16 12 11
internal_value=0.0107821 0.0113906 0.0109015 0.00902491 0.0115056 0.0154133 0.0169214 0.00353782 0.0148777 0.00394122 0.021214 0.00210881 -0.00558969 0.00591314 0.0159955 0.0171421 0.000684585 0.0184785 -0.00560013 0.00309474 -0.00541505 -0.0130819 0.00371873 0.000302859 0.0282068 0.0221843 0.0191745 -0.00758934
internal_weight=347.893 335.504 326.356 222.451 149.019 99.6674 93.6824 49.3513 103.905 73.4324 6.78452 66.6479 21.7661 44.8818 98.6859 91.7798 43.0313 83.5827 5.21863 8.19703 12.3885 6.89017 5.49836 6.90611 9.14844 6.31998 5.16811 5.98503
internal_count=1485 1431 1392 950 637 426 400 211 442 313 29 284 93 191 420 391 184 356 22 35 54 30 24 29 39 27 22 26
is_linear=0
shrinkage=0.03


Tree=31
num_leaves=31
num_cat=0
split_feature=17 7 6 18 20 15 36 12 23 34 40 6 18 19 6 25 35 36 18 25 24 28 25 12 20 24 56 7 25 25
split_gain=3.57977 3.18879 2.79475 3.05682 3.31066 3.36641 2.78491 2.55201 2.49075 3.15306 2.32602 2.26755 2.12841 3.4674 2.08994 2.04431 1.96156 2.12934 1.95453 1.86911 1.83483 1.54765 1.43169 1.384 1.21551 1.15542 1.13577 0.979575 0.497538 0.477415
threshold=2020.2500000000002 2956.7500000000005 6.9500000000000464 12.250000000000002 41.378171247357791 14.850000000000138 1.0219846006241171 38.150000000000098 3.5000000000000004 0.15847337334450354 1.3429830922483903 3.1500000000000914 11.950000000000047 18.292499999999965 5.5499999999999554 3.2999999999998413 1.1445947139200681 0.8558034983887961 6.7000000000000464 3.6000000000001369 1.5000000000000002 6.5000000000000009 0.95000000000004559 15.049999999999956 59.079133301931378 2.5000000000000004 1.0000000180025095e-35 2969.8000000000006 2.6000000000000232 1.0499999999999547
decision_type=2 2 2 2 2 2 2 2 2 2 2 2 2 2 2 2 2 2 2 2 2 2 2 2 2 2 2 2 2 2
left_child=26 2 3 4 11 19 -7 12 16 10 -10 29 18 20 -13 -15 22 -18 24 -6 -14 -11 -5 -20 -4 -9 -1 -3 -29 -2
right_child=1 27 7 8 5 6 -8 25 9 21 -12 14 13 15 -16 -17 17 -19 23 -21 -22 -23 -24 -25 -26 -27 -28 28 -30 -31
leaf_value=0.036429707648463497 -0.028307633104068555 -0.018880426942390817 0.0079121453969696384 0.032850353478375921 0.017879963887080571 -0.01140920238168649 0.0085485783279243902 0.042161644656480375 -0.015241946767745929 0.035725428137445607 0.018701879743192897 0.011047683074977228 -0.0048041804961947215 -0.021101166691312002 -0.010918152817474621 0.00099809849481823022 -0.0070680464845430642 0.01691628572688178 0.0060730390249068749 0.0002340944792816796 0.011807682080006342 0.0038028358630333367 0.018638847663807388 0.016526171743516144 -0.015225278432423599 0.01138277986706791 0.015249941452719299 0.011074413845388272 -0.0073486015929176678 -0.0086357195653465248
leaf_weight=6.1017339527606946 2.2095231264829662 3.8062772899866086 3.4902941137552252 8.0163563936948758 53.415094956755638 7.5985672771930686 32.484726518392563 2.3962842226028434 6.7608576864004117 3.1767909526824942 2.3176229298114777 12.832928061485292 8.5142344981431979 8.55309811234474 5.3761805295944205 6.2173416316509238 5.2439345568418494 8.2797734290361387 25.077201709151268 6.3964737504720679 18.217859983444214 2.7898576557636261 62.671119347214699 23.290612697601318 4.3855933994054794 2.7753456383943558 5.0213126689195633 2.3193802982568741 2.7297388762235641 3.6936983168125153
leaf_count=25 10 17 15 33 227 34 140 10 30 13 10 55 37 38 24 27 23 35 109 28 78 12 264 100 20 12 21 10 12 16
internal_value=0.0105117 0.00993547 0.010422 0.0123222 0.0091134 0.0115215 0.00467156 0.00626271 0.0162877 0.00473391 -0.00614031 -0.00074546 0.00512226 0 0.00437428 -0.011653 0.0183082 0.00741233 0.00891975 0.0160465 0.00640677 0.0216024 0.020337 0.0111922 -0.00462487 0.0267426 0.0273568 -0.00756567 0.000582351 -0.0168474
internal_weight=346.16 335.037 326.181 223.264 124.007 99.8949 40.0833 102.918 99.2563 15.0451 9.07848 24.1123 97.7462 41.5025 18.2091 14.7704 84.2112 13.5237 56.2437 59.8116 26.7321 5.96665 70.6875 48.3678 7.87589 5.17163 11.123 8.8554 5.04912 5.90322
internal_count=1485 1439 1400 954 534 429 174 446 420 65 40 105 424 180 79 65 355 58 244 255 115 25 297 209 35 22 46 39 22 26
is_linear=0
shrinkage=0.03


Tree=32
num_leaves=1
num_cat=0
split_feature=
split_gain=
threshold=
decision_type=
left_child=
right_child=
leaf_value=0
leaf_weight=
leaf_count=1881
internal_value=
internal_weight=
internal_count=
is_linear=0
shrinkage=1


Tree=33
num_leaves=21
num_cat=0
split_feature=17 7 11 6 18 19 36 36 35 7 5 34 20 40 56 8 18 27 7 26
split_gain=3.59424 2.68431 2.44322 2.8022 2.91975 2.95994 2.77698 2.57142 2.3581 2.65762 2.88546 2.0577 2.35807 1.15355 0.952636 1.71343 0.670862 0.610985 0.605209 0.123797
threshold=2025.4000000000003 2956.7500000000005 2033.1000000000001 6.5499999999999554 12.250000000000002 15.692500000000008 1.0714718153222331 0.69045639828938488 3.0022066737373811 2373.8500000000004 2380.1000000000004 0.40815447274343314 41.378171247357791 0.72244182786653854 1.0000000180025095e-35 2020.3500000000001 10.199999999999934 2.5000000000000004 2969.8000000000006 1.0000000180025095e-35
decision_type=2 2 2 2 2 2 2 2 2 2 2 2 2 2 2 2 2 2 2 2
left_child=14 2 17 4 11 6 -6 -7 9 13 -11 12 -4 -5 15 -1 -16 -2 -3 -20
right_child=1 18 3 8 5 7 -8 -9 -10 10 -12 -13 -14 -15 16 -17 -18 -19 19 -21
leaf_value=-0.024037250160155298 0.016703664087487941 0.03711987606035036 0.020988589352039372 -0.0038731545550811379 0.018270477855619464 0.0061774139160708378 0.0026801656566092275 -0.0086120287862597681 -0.013615771489784994 0.036239374169070977 0.015335645309407142 -0.014280225385193274 0.009742182403183695 0.010092481108672438 0.01367853666100706 0.0060037422505495397 -0.0065826938168279748 0.040376683750871029 0.010971479270815952 0.024723465676866781
leaf_weight=4.2927059829235059 2.620151460170745 4.0190282762050611 21.621735915541649 7.7724933922290829 18.404558017849922 19.599557384848595 24.452637270092964 22.54698646068573 2.5323389619588843 6.5971646308898917 90.917848065495491 2.5668780058622351 88.89704068005085 15.007642492651938 2.9513151198625565 2.5228413045406342 2.5405997484922409 3.0591781735420227 2.592137023806572 2.5955827683210373
leaf_count=19 11 17 92 33 79 83 106 97 11 28 386 11 378 64 13 11 11 13 11 11
internal_value=0.010685 0.0112715 0.0107992 0.0104327 0.00818106 0.00391931 0.00947204 -0.00166509 0.0140299 0.0146476 0.0168163 0.0113517 0.0119865 0.00520024 -0.0050362 -0.0125575 0.00381895 0.0304523 0.0274079 0.0187568
internal_weight=348.11 335.803 326.596 320.917 198.089 85.0037 42.8572 42.1465 122.827 120.295 97.515 113.086 110.519 22.7801 12.3075 6.81555 5.49191 5.67933 9.20675 5.18772
internal_count=1485 1431 1392 1368 846 365 185 180 522 511 414 481 470 97 54 30 24 24 39 22
is_linear=0
shrinkage=0.03


Tree=34
num_leaves=19
num_cat=0
split_feature=17 7 15 25 18 23 37 25 1 1 19 42 56 19 7 25 18 17
split_gain=3.30628 2.99448 2.43079 2.01243 2.78257 2.92041 2.67074 2.08344 5.38956 2.23116 1.97593 1.24632 1.03353 1.01639 0.931905 0.468116 0.437234 0.154404
threshold=2020.2500000000002 2956.7500000000005 5.1000000000000236 4.7500000000000009 20.35000000000014 1.5000000000000002 2.705484764177235 4.0499999999999554 2747.1500000000005 2568.3000000000006 15.229999999999906 1.0000000180025095e-35 1.0000000180025095e-35 13.372500000000004 2969.8000000000006 2.6000000000000232 10.199999999999934 2010.1000000000001
decision_type=2 2 2 2 2 2 2 2 2 2 2 2 2 2 2 2 2 2
left_child=12 2 11 6 5 10 7 9 -9 -4 -5 -2 17 -7 -3 -16 -14 -1
right_child=1 14 3 4 -6 13 -8 8 -10 -11 -12 -13 16 -15 15 -17 -18 -19
leaf_value=0.044480882391770692 -0.02716521846877161 -0.01828203347397701 0.012242170130426314 -0.0099472519817353274 -0.0044427594756999518 0.050463375335824394 0.035123393637398317 -0.0063980575611279197 0.037419849902788974 0.0064205132591670959 0.017865550797361188 0.0028257977035747953 0.0046939120670242687 0.026761798040532171 0.010928191746711538 -0.0069298253419055747 0.024288748516457376 0.027039157416777287
leaf_weight=2.5045927166938764 2.1445651799440375 3.7577452808618528 175.65833993256092 2.8254002183675828 3.8938741683959952 2.6491111218929282 3.7267574220895758 16.868748664855961 2.8680436164140692 94.185031279921532 9.2537506669759733 2.4178164601325989 2.6232560575008392 9.8762985765933973 2.323490634560585 2.7111784964799881 2.4123630523681641 3.6496371924877167
leaf_count=10 10 17 750 12 17 11 15 75 12 407 39 11 11 41 10 12 10 15
internal_value=0.0104245 0.00986853 0.0103381 0.0106519 0.0183919 0.0221305 0.00988364 0.00953644 0 0.0102244 0.0110854 -0.0109084 0.0265767 0.0323723 -0.00714362 0.000779679 0.0149553 0.0352148
internal_weight=346.35 335.16 326.368 321.805 28.4984 24.6046 293.307 289.58 19.7368 269.843 12.0792 4.56238 11.1898 12.5254 8.79241 5.03467 5.03562 6.15423
internal_count=1485 1439 1400 1379 120 103 1259 1244 87 1157 51 21 46 52 39 22 21 25
is_linear=0
shrinkage=0.03


Tree=35
num_leaves=1
num_cat=0
split_feature=
split_gain=
threshold=
decision_type=
left_child=
right_child=
leaf_value=0
leaf_weight=
leaf_count=1881
internal_value=
internal_weight=
internal_count=
is_linear=0
shrinkage=1


Tree=36
num_leaves=24
num_cat=0
split_feature=17 7 11 14 20 57 8 14 20 16 15 35 25 25 37 34 56 8 57 57 7 25 18
split_gain=3.37169 2.48562 2.32325 2.09823 2.9388 2.65856 2.62625 4.0485 4.14257 3.63345 3.34043 2.65914 2.15109 1.87091 1.70677 1.43559 0.900716 1.65724 0.779697 0.717699 0.543333 0.376291 0.315426
threshold=2025.4000000000003 2956.7500000000005 2033.1000000000001 2332.2000000000003 33.894977168949893 0.31372549019607848 2381.1000000000004 2361.5000000000005 35.942583732057706 2548.1500000000005 14.649999999999865 2.1648855912340128 1.7000000000001594 1.949999999999932 0.48365235042541249 0.2139109166404303 1.0000000180025095e-35 2020.3500000000001 1.0000000180025095e-35 0.13392857142857145 2969.8000000000006 2.6000000000000232 9.8500000000001382
decision_type=2 2 2 2 2 2 2 2 2 2 2 2 2 2 2 2 2 2 2 2 2 2 2
left_child=16 2 19 4 13 14 7 8 -5 10 -8 -11 -7 22 -6 -9 17 -1 -18 -2 -3 -22 -4
right_child=1 20 3 6 5 12 9 15 -10 11 -12 -13 -14 -15 -16 -17 18 -19 -20 -21 21 -23 -24
leaf_value=-0.023507456709729653 0.014229543390552987 0.035895891632092294 0.021389157238049922 -0.0090889253193171485 0.010846916397500614 0.0043542086962960165 -0.0058290843173206056 0.038298672068322513 0.01770426793809261 0.013146029107309597 0.010005559998975093 -0.012754296053836699 0.041850633654264772 0.0054757365443216365 -0.00067822614262026952 0.014034730475683831 0.014656443094156776 0.0061398213060511924 -0.007234627821236312 0.039358122299590806 0.0071775797381323 0.026062528070077633 0.042572016606822707
leaf_weight=4.2222315669059736 2.3761752396821967 4.052177891135214 2.3772413432598096 6.2963428944349316 14.892789974808691 3.0774666517972937 21.288869887590408 9.901397690176962 25.354872554540634 145.69533267617226 26.839439079165459 3.4639920741319647 2.7766210585832596 4.0042775571346283 48.843529492616653 3.5879274159669867 2.9123057126998901 2.5183966308832169 2.5723782330751419 3.3284797519445419 2.3620137274265289 2.8439997285604477 2.7518106698989868
leaf_count=19 10 17 10 27 64 13 91 42 108 619 114 15 12 17 209 15 13 11 11 14 10 12 12
internal_value=0.0105895 0.0111551 0.0106988 0.0103404 0.00599467 0.00382627 0.0117362 0.0183535 0.012268 0.0101984 0.00294156 0.0125163 0.023047 0.0219712 0.00198055 0.0322164 -0.00468241 -0.0120644 0.0039064 0.0298335 0.0266553 0.0183564 0.0339246
internal_weight=348.34 336.115 326.857 321.152 78.7237 69.5904 242.428 45.1405 31.6512 197.288 48.1283 149.159 5.85409 9.13333 63.7363 13.4893 12.2253 6.74063 5.48468 5.70465 9.25819 5.20601 5.12905
internal_count=1485 1431 1392 1368 337 298 1031 192 135 839 205 634 25 39 273 57 54 30 24 24 39 22 22
is_linear=0
shrinkage=0.03


Tree=37
num_leaves=30
num_cat=0
split_feature=6 12 17 15 18 17 25 18 37 6 23 40 25 25 42 25 25 24 12 1 34 27 29 34 34 25 18 25 9
split_gain=3.14042 3.03688 2.91598 2.49077 2.48038 2.29827 2.11187 2.60688 2.26545 2.17519 1.95895 1.54238 1.64069 3.05642 1.22157 1.05001 1.18831 1.04992 0.989256 0.980132 1.32355 0.941243 1.37827 1.22555 1.48322 0.976296 0.793891 1.02473 0.172886
threshold=8.4000000000000927 38.150000000000098 2025.4000000000003 5.1000000000000236 13.200000000000047 2938.2500000000005 4.7500000000000009 20.500000000000004 2.705484764177235 2.7500000000000004 1.5000000000000002 0.84234693877550249 2.6000000000000232 4.7000000000000464 1.0000000180025095e-35 3.7000000000000459 4.4500000000000464 2.5000000000000004 28.950000000000049 2323.7500000000005 0.13955816242842786 2.5000000000000004 5.5000000000000009 0.31276455716233315 0.24416129825094979 1.949999999999932 16.049999999999958 2.6000000000000232 11.950000000000047
decision_type=2 2 2 2 2 2 2 2 2 2 2 2 2 2 2 2 2 2 2 2 2 2 2 2 2 2 2 2 2
left_child=2 4 28 14 11 6 8 10 9 -5 -8 12 18 -14 -4 19 -17 -3 -2 -13 -21 23 -23 24 25 -6 27 -7 -1
right_child=1 17 3 5 21 26 7 -9 -10 -11 -12 15 13 -15 -16 16 -18 -19 -20 20 -22 22 -24 -25 -26 -27 -28 -29 -30
leaf_value=0.021484552326858562 0.039976214413049896 0.040308178091685437 -0.026803440764557315 0.024132128385395427 0.0069861125802670732 0.013933077404865095 0.013823076424443251 -0.0055073980387706509 0.034351180833891833 0.010039974114352937 0.035944240290657646 0.015700487924755337 -0.015936072260571244 0.027541669321411336 0.0030075672708938421 0.029831707712624469 0 0.01098984024398186 0.011034882782180849 0.0020693406827898774 -0.016591463579029887 0 -0.028685363917027876 -0.021662071859788735 0.019110090299591782 -0.011198299949115245 -0.018909217992563811 -0.0099774610704242098 0.03293033602039025
leaf_weight=7.7628011107444745 2.9689231961965543 2.4323568642139426 2.1176579296588889 10.618813365697859 4.1659497916698509 3.0469358712434751 7.3711803555488649 2.5147116631269446 3.7429873794317237 228.15025036036968 8.7931636869907361 2.5361782163381639 2.9421607255935669 2.6418715417385101 2.4102207571268082 2.2871659845113745 2.5302995443344116 2.7872769683599472 2.321545273065567 9.7998908609151822 4.9724155664443961 2.5460582375526419 3.2844062149524689 2.3168699443340293 3.1967616677284232 6.495642751455307 2.2054745703935623 3.1426612138748169 4.462164580821991
leaf_count=32 12 10 10 44 18 13 31 11 15 977 36 11 13 11 11 10 11 12 10 43 23 11 15 10 14 29 10 14 18
internal_value=0.0103382 0.00402604 0.0116535 0.0109872 0.00187037 0.0113641 0.0118635 0.0217547 0.0110807 0.0106891 0.0261881 0.00710512 0.0163507 0.00422862 -0.0105645 0.00237297 0.0146467 0.0257171 0.0282731 -0.000935364 -0.00407957 -0.00584075 -0.0161376 -0.00186852 0.00135717 -0.0038152 -0.00377887 0.00135032 0.026139
internal_weight=346.565 60.2258 286.339 274.114 55.0061 269.586 261.191 18.6791 242.512 238.769 16.1643 33.0005 10.8745 5.58403 4.52788 22.126 4.81747 5.21963 5.29047 17.3085 14.7723 22.0057 5.83046 16.1752 13.8584 10.6616 8.39507 6.1896 12.225
internal_count=1485 263 1222 1172 241 1151 1114 78 1036 1021 67 144 46 24 21 98 21 22 22 77 66 97 26 71 61 47 37 27 50
is_linear=0
shrinkage=0.03


Tree=38
num_leaves=1
num_cat=0
split_feature=
split_gain=
threshold=
decision_type=
left_child=
right_child=
leaf_value=0
leaf_weight=
leaf_count=1881
internal_value=
internal_weight=
internal_count=
is_linear=0
shrinkage=1


Tree=39
num_leaves=31
num_cat=0
split_feature=17 6 48 3 18 1 1 12 37 34 15 34 34 34 37 19 18 24 12 34 1 19 19 34 3 28 6 42 57 15
split_gain=3.14517 2.41765 3.55923 4.37914 3.32614 2.80484 5.51218 2.48166 2.20428 2.10142 1.85348 2.09053 2.68838 3.03893 1.84157 2.12089 3.23822 1.82056 2.25292 1.61833 2.17962 2.05488 2.49743 1.96603 1.57557 1.34426 1.24722 1.03122 0.992386 0.985376
threshold=2025.4000000000003 6.5499999999999554 1.0000000180025095e-35 3.4499999999998185 15.550000000000184 2681.9000000000005 2370.8500000000004 38.150000000000098 0.41664976360206879 0.24984622607126261 21.950000000000049 0.043601989509312773 0.074742386206615316 0.08586704962057097 0.42968473364926163 18.292499999999965 11.950000000000047 2.5000000000000004 10.649999999999865 0.20253592578141247 2541.9000000000001 16.622499999999992 12.897500000000038 0.18199365683130495 3.049999999999955 12.500000000000002 8.7500000000002292 1.0000000180025095e-35 1.0000000180025095e-35 16.149999999999867
decision_type=2 2 2 2 2 2 2 2 2 2 2 2 2 2 2 2 2 2 2 2 2 2 2 2 2 2 2 2 2 2
left_child=-1 2 3 4 5 6 -2 8 27 -9 11 -4 24 -14 -10 26 -17 -6 -19 20 25 22 -21 -22 -13 -5 -16 28 -3 -29
right_child=1 7 10 19 17 -7 -8 9 14 -11 -12 12 13 -15 15 16 -18 18 -20 21 23 -23 -24 -25 -26 -27 -28 29 -30 -31
leaf_value=-0.0042999935943470987 0.022397370551632517 -0.00046794551477041574 -0.017498081727150411 0.0047419646796931642 -0.0055239077284857021 0.033015076614091636 0.0039441690169432645 -0.019073950026894541 0.03619619624508702 0.01688702453421824 0.018008178653665888 0.0061327613726863727 -0.0247324363781386 0.0029190622900379308 0.0086084001383073313 0.011686946492965766 0.029619372500184732 -0.010982356308997351 0.022882392734680301 0.0093742440143980039 0.013610809601749112 -0.0091889899288184577 0.04186303820892117 -0.014895533996292207 0.037010523906718204 -0.011948252542196152 0.017035147159546578 0.0071033503899453091 0.024475963219906527 -0.01739881622717317
leaf_weight=12.136828541755674 41.413904085755348 2.5813726484775525 4.6611216068267813 6.2963677793741253 9.0837967693805712 10.405319496989248 23.191735491156578 3.5291526913642874 4.2926787137985221 2.2952654659748077 6.7950109690427771 3.4987613111734381 3.7766256779432288 45.281310319900513 38.837464988231659 17.849520862102509 20.551582798361778 2.245027616620062 6.2537284642457962 8.2381715476512891 13.283759623765944 2.8023236840963355 3.0121448040008536 2.4201888591051093 2.9930055439472198 12.329742237925528 30.275355905294418 2.361916184425354 2.5934272259473801 3.2382811307907104
leaf_count=54 175 11 20 27 39 44 99 15 18 10 29 15 16 194 165 76 87 10 27 35 56 12 13 10 13 53 127 10 11 14
internal_value=0.0104967 0.0110406 0.00899462 0.0117073 0.0155395 0.0182996 0.0158359 0.0143215 0.015236 -0.00435036 0.00323359 0.00148939 0.00316509 0.000683358 0.0164878 0.0156402 0.021414 0.00355741 0.0135641 0.00429474 0.000680856 0.0128441 0.0186293 0.00896132 0.0211695 -0.0061509 0.0123624 0.00193795 0.0116913 -0.00659526
internal_weight=348.525 336.388 207.982 140.976 92.5935 75.011 64.6056 128.406 122.582 5.82442 67.0058 60.2108 55.5497 49.0579 111.807 107.514 38.4011 17.5826 8.49876 48.3827 34.3301 14.0526 11.2503 15.7039 6.49177 18.6261 69.1128 10.775 5.1748 5.6002
internal_count=1485 1431 887 600 394 318 274 544 519 25 287 258 238 210 473 455 163 76 37 206 146 60 48 66 28 80 292 46 22 24
is_linear=0
shrinkage=0.03


Tree=40
num_leaves=23
num_cat=0
split_feature=17 16 15 9 9 37 18 35 33 9 37 29 23 39 15 57 42 56 8 25 9 25
split_gain=2.83197 2.65485 2.20711 2.07922 3.00577 2.39252 3.98677 2.89913 2.16145 3.43394 1.77854 2.5245 3.03452 1.91613 1.71224 1.5977 1.20162 0.917688 0.852793 0.416339 0.140406 0.0316622
threshold=2020.2500000000002 2955.5500000000006 5.1000000000000236 21.050000000000185 14.249999999999888 0.85408505081474784 14.099999999999911 1.2686140401886299 10.500000000000002 14.549999999999956 0.91625087521081305 9.5000000000000018 1.5000000000000002 0.54999999999995464 19.500000000000004 -0.35416666666666657 1.0000000180025095e-35 1.0000000180025095e-35 2951.1500000000005 2.6000000000000232 11.950000000000047 1.3999999999997501
decision_type=2 2 2 2 2 2 2 2 2 2 2 2 2 2 2 2 2 2 2 2 2 2
left_child=17 2 16 4 5 6 -4 -7 9 -6 13 12 -12 14 -5 -10 -2 20 -3 -20 -1 -19
right_child=1 18 3 10 8 7 -8 -9 15 -11 11 -13 -14 -15 -16 -17 -18 21 19 -21 -22 -23
leaf_value=0.025456319648820377 -0.026462720845321128 -0.017226715921490089 0.011054686971981434 0.033358133855830086 -0.017669198331883202 0.021391365019941013 -0.0071592781219382076 0.0057475802540453797 -0.021173614171656367 0.011861775367720633 0.02246965671745095 0.032549595489877826 -0.00024684001115811687 0.0018784663921467075 0.016000278619640922 0.0017363494463729005 0.0032361706170402028 0.01802860796334264 0.010677534534717639 -0.0061368484959259811 0.042094104339938085 0.0080855563469833056
leaf_weight=3.6912301033735258 2.0901672542095175 3.6656007170677167 107.58413444459438 11.378574073314672 3.6946712583303443 38.713268890976906 11.748839214444159 15.630125895142553 2.8215935975313178 43.221946865320206 7.3897151052951875 3.9276709258556357 17.171789914369583 4.176319792866706 11.65972790122032 43.149389892816544 2.4005016833543777 2.6799508184194565 2.3304695934057236 2.674384281039238 2.5354183614253998 2.3906405121088028
leaf_count=15 10 17 460 47 17 161 51 67 13 186 31 16 75 18 49 188 11 11 10 12 10 10
